FANN_FLO_2.1
num_layers=3
learning_rate=0.700000
connection_rate=1.000000
network_type=0
learning_momentum=0.000000
training_algorithm=2
train_error_function=1
train_stop_function=0
cascade_output_change_fraction=0.010000
quickprop_decay=-0.000100
quickprop_mu=1.750000
rprop_increase_factor=1.200000
rprop_decrease_factor=0.500000
rprop_delta_min=0.000000
rprop_delta_max=50.000000
rprop_delta_zero=0.100000
cascade_output_stagnation_epochs=12
cascade_candidate_change_fraction=0.010000
cascade_candidate_stagnation_epochs=12
cascade_max_out_epochs=150
cascade_min_out_epochs=50
cascade_max_cand_epochs=150
cascade_min_cand_epochs=50
cascade_num_candidate_groups=2
bit_fail_limit=3.49999999999999977796e-01
cascade_candidate_limit=1.00000000000000000000e+03
cascade_weight_multiplier=4.00000000000000022204e-01
cascade_activation_functions_count=10
cascade_activation_functions=3 5 7 8 10 11 14 15 16 17 
cascade_activation_steepnesses_count=4
cascade_activation_steepnesses=2.50000000000000000000e-01 5.00000000000000000000e-01 7.50000000000000000000e-01 1.00000000000000000000e+00 
layer_sizes=257 257 11 
scale_included=0
neurons (num_inputs, activation_function, activation_steepness)=(0, 0, 0.00000000000000000000e+00) (0, 0, 0.00000000000000000000e+00) (0, 0, 0.00000000000000000000e+00) (0, 0, 0.00000000000000000000e+00) (0, 0, 0.00000000000000000000e+00) (0, 0, 0.00000000000000000000e+00) (0, 0, 0.00000000000000000000e+00) (0, 0, 0.00000000000000000000e+00) (0, 0, 0.00000000000000000000e+00) (0, 0, 0.00000000000000000000e+00) (0, 0, 0.00000000000000000000e+00) (0, 0, 0.00000000000000000000e+00) (0, 0, 0.00000000000000000000e+00) (0, 0, 0.00000000000000000000e+00) (0, 0, 0.00000000000000000000e+00) (0, 0, 0.00000000000000000000e+00) (0, 0, 0.00000000000000000000e+00) (0, 0, 0.00000000000000000000e+00) (0, 0, 0.00000000000000000000e+00) (0, 0, 0.00000000000000000000e+00) (0, 0, 0.00000000000000000000e+00) (0, 0, 0.00000000000000000000e+00) (0, 0, 0.00000000000000000000e+00) (0, 0, 0.00000000000000000000e+00) (0, 0, 0.00000000000000000000e+00) (0, 0, 0.00000000000000000000e+00) (0, 0, 0.00000000000000000000e+00) (0, 0, 0.00000000000000000000e+00) (0, 0, 0.00000000000000000000e+00) (0, 0, 0.00000000000000000000e+00) (0, 0, 0.00000000000000000000e+00) (0, 0, 0.00000000000000000000e+00) (0, 0, 0.00000000000000000000e+00) (0, 0, 0.00000000000000000000e+00) (0, 0, 0.00000000000000000000e+00) (0, 0, 0.00000000000000000000e+00) (0, 0, 0.00000000000000000000e+00) (0, 0, 0.00000000000000000000e+00) (0, 0, 0.00000000000000000000e+00) (0, 0, 0.00000000000000000000e+00) (0, 0, 0.00000000000000000000e+00) (0, 0, 0.00000000000000000000e+00) (0, 0, 0.00000000000000000000e+00) (0, 0, 0.00000000000000000000e+00) (0, 0, 0.00000000000000000000e+00) (0, 0, 0.00000000000000000000e+00) (0, 0, 0.00000000000000000000e+00) (0, 0, 0.00000000000000000000e+00) (0, 0, 0.00000000000000000000e+00) (0, 0, 0.00000000000000000000e+00) (0, 0, 0.00000000000000000000e+00) (0, 0, 0.00000000000000000000e+00) (0, 0, 0.00000000000000000000e+00) (0, 0, 0.00000000000000000000e+00) (0, 0, 0.00000000000000000000e+00) (0, 0, 0.00000000000000000000e+00) (0, 0, 0.00000000000000000000e+00) (0, 0, 0.00000000000000000000e+00) (0, 0, 0.00000000000000000000e+00) (0, 0, 0.00000000000000000000e+00) (0, 0, 0.00000000000000000000e+00) (0, 0, 0.00000000000000000000e+00) (0, 0, 0.00000000000000000000e+00) (0, 0, 0.00000000000000000000e+00) (0, 0, 0.00000000000000000000e+00) (0, 0, 0.00000000000000000000e+00) (0, 0, 0.00000000000000000000e+00) (0, 0, 0.00000000000000000000e+00) (0, 0, 0.00000000000000000000e+00) (0, 0, 0.00000000000000000000e+00) (0, 0, 0.00000000000000000000e+00) (0, 0, 0.00000000000000000000e+00) (0, 0, 0.00000000000000000000e+00) (0, 0, 0.00000000000000000000e+00) (0, 0, 0.00000000000000000000e+00) (0, 0, 0.00000000000000000000e+00) (0, 0, 0.00000000000000000000e+00) (0, 0, 0.00000000000000000000e+00) (0, 0, 0.00000000000000000000e+00) (0, 0, 0.00000000000000000000e+00) (0, 0, 0.00000000000000000000e+00) (0, 0, 0.00000000000000000000e+00) (0, 0, 0.00000000000000000000e+00) (0, 0, 0.00000000000000000000e+00) (0, 0, 0.00000000000000000000e+00) (0, 0, 0.00000000000000000000e+00) (0, 0, 0.00000000000000000000e+00) (0, 0, 0.00000000000000000000e+00) (0, 0, 0.00000000000000000000e+00) (0, 0, 0.00000000000000000000e+00) (0, 0, 0.00000000000000000000e+00) (0, 0, 0.00000000000000000000e+00) (0, 0, 0.00000000000000000000e+00) (0, 0, 0.00000000000000000000e+00) (0, 0, 0.00000000000000000000e+00) (0, 0, 0.00000000000000000000e+00) (0, 0, 0.00000000000000000000e+00) (0, 0, 0.00000000000000000000e+00) (0, 0, 0.00000000000000000000e+00) (0, 0, 0.00000000000000000000e+00) (0, 0, 0.00000000000000000000e+00) (0, 0, 0.00000000000000000000e+00) (0, 0, 0.00000000000000000000e+00) (0, 0, 0.00000000000000000000e+00) (0, 0, 0.00000000000000000000e+00) (0, 0, 0.00000000000000000000e+00) (0, 0, 0.00000000000000000000e+00) (0, 0, 0.00000000000000000000e+00) (0, 0, 0.00000000000000000000e+00) (0, 0, 0.00000000000000000000e+00) (0, 0, 0.00000000000000000000e+00) (0, 0, 0.00000000000000000000e+00) (0, 0, 0.00000000000000000000e+00) (0, 0, 0.00000000000000000000e+00) (0, 0, 0.00000000000000000000e+00) (0, 0, 0.00000000000000000000e+00) (0, 0, 0.00000000000000000000e+00) (0, 0, 0.00000000000000000000e+00) (0, 0, 0.00000000000000000000e+00) (0, 0, 0.00000000000000000000e+00) (0, 0, 0.00000000000000000000e+00) (0, 0, 0.00000000000000000000e+00) (0, 0, 0.00000000000000000000e+00) (0, 0, 0.00000000000000000000e+00) (0, 0, 0.00000000000000000000e+00) (0, 0, 0.00000000000000000000e+00) (0, 0, 0.00000000000000000000e+00) (0, 0, 0.00000000000000000000e+00) (0, 0, 0.00000000000000000000e+00) (0, 0, 0.00000000000000000000e+00) (0, 0, 0.00000000000000000000e+00) (0, 0, 0.00000000000000000000e+00) (0, 0, 0.00000000000000000000e+00) (0, 0, 0.00000000000000000000e+00) (0, 0, 0.00000000000000000000e+00) (0, 0, 0.00000000000000000000e+00) (0, 0, 0.00000000000000000000e+00) (0, 0, 0.00000000000000000000e+00) (0, 0, 0.00000000000000000000e+00) (0, 0, 0.00000000000000000000e+00) (0, 0, 0.00000000000000000000e+00) (0, 0, 0.00000000000000000000e+00) (0, 0, 0.00000000000000000000e+00) (0, 0, 0.00000000000000000000e+00) (0, 0, 0.00000000000000000000e+00) (0, 0, 0.00000000000000000000e+00) (0, 0, 0.00000000000000000000e+00) (0, 0, 0.00000000000000000000e+00) (0, 0, 0.00000000000000000000e+00) (0, 0, 0.00000000000000000000e+00) (0, 0, 0.00000000000000000000e+00) (0, 0, 0.00000000000000000000e+00) (0, 0, 0.00000000000000000000e+00) (0, 0, 0.00000000000000000000e+00) (0, 0, 0.00000000000000000000e+00) (0, 0, 0.00000000000000000000e+00) (0, 0, 0.00000000000000000000e+00) (0, 0, 0.00000000000000000000e+00) (0, 0, 0.00000000000000000000e+00) (0, 0, 0.00000000000000000000e+00) (0, 0, 0.00000000000000000000e+00) (0, 0, 0.00000000000000000000e+00) (0, 0, 0.00000000000000000000e+00) (0, 0, 0.00000000000000000000e+00) (0, 0, 0.00000000000000000000e+00) (0, 0, 0.00000000000000000000e+00) (0, 0, 0.00000000000000000000e+00) (0, 0, 0.00000000000000000000e+00) (0, 0, 0.00000000000000000000e+00) (0, 0, 0.00000000000000000000e+00) (0, 0, 0.00000000000000000000e+00) (0, 0, 0.00000000000000000000e+00) (0, 0, 0.00000000000000000000e+00) (0, 0, 0.00000000000000000000e+00) (0, 0, 0.00000000000000000000e+00) (0, 0, 0.00000000000000000000e+00) (0, 0, 0.00000000000000000000e+00) (0, 0, 0.00000000000000000000e+00) (0, 0, 0.00000000000000000000e+00) (0, 0, 0.00000000000000000000e+00) (0, 0, 0.00000000000000000000e+00) (0, 0, 0.00000000000000000000e+00) (0, 0, 0.00000000000000000000e+00) (0, 0, 0.00000000000000000000e+00) (0, 0, 0.00000000000000000000e+00) (0, 0, 0.00000000000000000000e+00) (0, 0, 0.00000000000000000000e+00) (0, 0, 0.00000000000000000000e+00) (0, 0, 0.00000000000000000000e+00) (0, 0, 0.00000000000000000000e+00) (0, 0, 0.00000000000000000000e+00) (0, 0, 0.00000000000000000000e+00) (0, 0, 0.00000000000000000000e+00) (0, 0, 0.00000000000000000000e+00) (0, 0, 0.00000000000000000000e+00) (0, 0, 0.00000000000000000000e+00) (0, 0, 0.00000000000000000000e+00) (0, 0, 0.00000000000000000000e+00) (0, 0, 0.00000000000000000000e+00) (0, 0, 0.00000000000000000000e+00) (0, 0, 0.00000000000000000000e+00) (0, 0, 0.00000000000000000000e+00) (0, 0, 0.00000000000000000000e+00) (0, 0, 0.00000000000000000000e+00) (0, 0, 0.00000000000000000000e+00) (0, 0, 0.00000000000000000000e+00) (0, 0, 0.00000000000000000000e+00) (0, 0, 0.00000000000000000000e+00) (0, 0, 0.00000000000000000000e+00) (0, 0, 0.00000000000000000000e+00) (0, 0, 0.00000000000000000000e+00) (0, 0, 0.00000000000000000000e+00) (0, 0, 0.00000000000000000000e+00) (0, 0, 0.00000000000000000000e+00) (0, 0, 0.00000000000000000000e+00) (0, 0, 0.00000000000000000000e+00) (0, 0, 0.00000000000000000000e+00) (0, 0, 0.00000000000000000000e+00) (0, 0, 0.00000000000000000000e+00) (0, 0, 0.00000000000000000000e+00) (0, 0, 0.00000000000000000000e+00) (0, 0, 0.00000000000000000000e+00) (0, 0, 0.00000000000000000000e+00) (0, 0, 0.00000000000000000000e+00) (0, 0, 0.00000000000000000000e+00) (0, 0, 0.00000000000000000000e+00) (0, 0, 0.00000000000000000000e+00) (0, 0, 0.00000000000000000000e+00) (0, 0, 0.00000000000000000000e+00) (0, 0, 0.00000000000000000000e+00) (0, 0, 0.00000000000000000000e+00) (0, 0, 0.00000000000000000000e+00) (0, 0, 0.00000000000000000000e+00) (0, 0, 0.00000000000000000000e+00) (0, 0, 0.00000000000000000000e+00) (0, 0, 0.00000000000000000000e+00) (0, 0, 0.00000000000000000000e+00) (0, 0, 0.00000000000000000000e+00) (0, 0, 0.00000000000000000000e+00) (0, 0, 0.00000000000000000000e+00) (0, 0, 0.00000000000000000000e+00) (0, 0, 0.00000000000000000000e+00) (0, 0, 0.00000000000000000000e+00) (0, 0, 0.00000000000000000000e+00) (0, 0, 0.00000000000000000000e+00) (0, 0, 0.00000000000000000000e+00) (0, 0, 0.00000000000000000000e+00) (0, 0, 0.00000000000000000000e+00) (0, 0, 0.00000000000000000000e+00) (0, 0, 0.00000000000000000000e+00) (0, 0, 0.00000000000000000000e+00) (0, 0, 0.00000000000000000000e+00) (0, 0, 0.00000000000000000000e+00) (0, 0, 0.00000000000000000000e+00) (0, 0, 0.00000000000000000000e+00) (0, 0, 0.00000000000000000000e+00) (0, 0, 0.00000000000000000000e+00) (257, 6, 5.00000000000000000000e-01) (257, 6, 5.00000000000000000000e-01) (257, 6, 5.00000000000000000000e-01) (257, 6, 5.00000000000000000000e-01) (257, 6, 5.00000000000000000000e-01) (257, 6, 5.00000000000000000000e-01) (257, 6, 5.00000000000000000000e-01) (257, 6, 5.00000000000000000000e-01) (257, 6, 5.00000000000000000000e-01) (257, 6, 5.00000000000000000000e-01) (257, 6, 5.00000000000000000000e-01) (257, 6, 5.00000000000000000000e-01) (257, 6, 5.00000000000000000000e-01) (257, 6, 5.00000000000000000000e-01) (257, 6, 5.00000000000000000000e-01) (257, 6, 5.00000000000000000000e-01) (257, 6, 5.00000000000000000000e-01) (257, 6, 5.00000000000000000000e-01) (257, 6, 5.00000000000000000000e-01) (257, 6, 5.00000000000000000000e-01) (257, 6, 5.00000000000000000000e-01) (257, 6, 5.00000000000000000000e-01) (257, 6, 5.00000000000000000000e-01) (257, 6, 5.00000000000000000000e-01) (257, 6, 5.00000000000000000000e-01) (257, 6, 5.00000000000000000000e-01) (257, 6, 5.00000000000000000000e-01) (257, 6, 5.00000000000000000000e-01) (257, 6, 5.00000000000000000000e-01) (257, 6, 5.00000000000000000000e-01) (257, 6, 5.00000000000000000000e-01) (257, 6, 5.00000000000000000000e-01) (257, 6, 5.00000000000000000000e-01) (257, 6, 5.00000000000000000000e-01) (257, 6, 5.00000000000000000000e-01) (257, 6, 5.00000000000000000000e-01) (257, 6, 5.00000000000000000000e-01) (257, 6, 5.00000000000000000000e-01) (257, 6, 5.00000000000000000000e-01) (257, 6, 5.00000000000000000000e-01) (257, 6, 5.00000000000000000000e-01) (257, 6, 5.00000000000000000000e-01) (257, 6, 5.00000000000000000000e-01) (257, 6, 5.00000000000000000000e-01) (257, 6, 5.00000000000000000000e-01) (257, 6, 5.00000000000000000000e-01) (257, 6, 5.00000000000000000000e-01) (257, 6, 5.00000000000000000000e-01) (257, 6, 5.00000000000000000000e-01) (257, 6, 5.00000000000000000000e-01) (257, 6, 5.00000000000000000000e-01) (257, 6, 5.00000000000000000000e-01) (257, 6, 5.00000000000000000000e-01) (257, 6, 5.00000000000000000000e-01) (257, 6, 5.00000000000000000000e-01) (257, 6, 5.00000000000000000000e-01) (257, 6, 5.00000000000000000000e-01) (257, 6, 5.00000000000000000000e-01) (257, 6, 5.00000000000000000000e-01) (257, 6, 5.00000000000000000000e-01) (257, 6, 5.00000000000000000000e-01) (257, 6, 5.00000000000000000000e-01) (257, 6, 5.00000000000000000000e-01) (257, 6, 5.00000000000000000000e-01) (257, 6, 5.00000000000000000000e-01) (257, 6, 5.00000000000000000000e-01) (257, 6, 5.00000000000000000000e-01) (257, 6, 5.00000000000000000000e-01) (257, 6, 5.00000000000000000000e-01) (257, 6, 5.00000000000000000000e-01) (257, 6, 5.00000000000000000000e-01) (257, 6, 5.00000000000000000000e-01) (257, 6, 5.00000000000000000000e-01) (257, 6, 5.00000000000000000000e-01) (257, 6, 5.00000000000000000000e-01) (257, 6, 5.00000000000000000000e-01) (257, 6, 5.00000000000000000000e-01) (257, 6, 5.00000000000000000000e-01) (257, 6, 5.00000000000000000000e-01) (257, 6, 5.00000000000000000000e-01) (257, 6, 5.00000000000000000000e-01) (257, 6, 5.00000000000000000000e-01) (257, 6, 5.00000000000000000000e-01) (257, 6, 5.00000000000000000000e-01) (257, 6, 5.00000000000000000000e-01) (257, 6, 5.00000000000000000000e-01) (257, 6, 5.00000000000000000000e-01) (257, 6, 5.00000000000000000000e-01) (257, 6, 5.00000000000000000000e-01) (257, 6, 5.00000000000000000000e-01) (257, 6, 5.00000000000000000000e-01) (257, 6, 5.00000000000000000000e-01) (257, 6, 5.00000000000000000000e-01) (257, 6, 5.00000000000000000000e-01) (257, 6, 5.00000000000000000000e-01) (257, 6, 5.00000000000000000000e-01) (257, 6, 5.00000000000000000000e-01) (257, 6, 5.00000000000000000000e-01) (257, 6, 5.00000000000000000000e-01) (257, 6, 5.00000000000000000000e-01) (257, 6, 5.00000000000000000000e-01) (257, 6, 5.00000000000000000000e-01) (257, 6, 5.00000000000000000000e-01) (257, 6, 5.00000000000000000000e-01) (257, 6, 5.00000000000000000000e-01) (257, 6, 5.00000000000000000000e-01) (257, 6, 5.00000000000000000000e-01) (257, 6, 5.00000000000000000000e-01) (257, 6, 5.00000000000000000000e-01) (257, 6, 5.00000000000000000000e-01) (257, 6, 5.00000000000000000000e-01) (257, 6, 5.00000000000000000000e-01) (257, 6, 5.00000000000000000000e-01) (257, 6, 5.00000000000000000000e-01) (257, 6, 5.00000000000000000000e-01) (257, 6, 5.00000000000000000000e-01) (257, 6, 5.00000000000000000000e-01) (257, 6, 5.00000000000000000000e-01) (257, 6, 5.00000000000000000000e-01) (257, 6, 5.00000000000000000000e-01) (257, 6, 5.00000000000000000000e-01) (257, 6, 5.00000000000000000000e-01) (257, 6, 5.00000000000000000000e-01) (257, 6, 5.00000000000000000000e-01) (257, 6, 5.00000000000000000000e-01) (257, 6, 5.00000000000000000000e-01) (257, 6, 5.00000000000000000000e-01) (257, 6, 5.00000000000000000000e-01) (257, 6, 5.00000000000000000000e-01) (257, 6, 5.00000000000000000000e-01) (257, 6, 5.00000000000000000000e-01) (257, 6, 5.00000000000000000000e-01) (257, 6, 5.00000000000000000000e-01) (257, 6, 5.00000000000000000000e-01) (257, 6, 5.00000000000000000000e-01) (257, 6, 5.00000000000000000000e-01) (257, 6, 5.00000000000000000000e-01) (257, 6, 5.00000000000000000000e-01) (257, 6, 5.00000000000000000000e-01) (257, 6, 5.00000000000000000000e-01) (257, 6, 5.00000000000000000000e-01) (257, 6, 5.00000000000000000000e-01) (257, 6, 5.00000000000000000000e-01) (257, 6, 5.00000000000000000000e-01) (257, 6, 5.00000000000000000000e-01) (257, 6, 5.00000000000000000000e-01) (257, 6, 5.00000000000000000000e-01) (257, 6, 5.00000000000000000000e-01) (257, 6, 5.00000000000000000000e-01) (257, 6, 5.00000000000000000000e-01) (257, 6, 5.00000000000000000000e-01) (257, 6, 5.00000000000000000000e-01) (257, 6, 5.00000000000000000000e-01) (257, 6, 5.00000000000000000000e-01) (257, 6, 5.00000000000000000000e-01) (257, 6, 5.00000000000000000000e-01) (257, 6, 5.00000000000000000000e-01) (257, 6, 5.00000000000000000000e-01) (257, 6, 5.00000000000000000000e-01) (257, 6, 5.00000000000000000000e-01) (257, 6, 5.00000000000000000000e-01) (257, 6, 5.00000000000000000000e-01) (257, 6, 5.00000000000000000000e-01) (257, 6, 5.00000000000000000000e-01) (257, 6, 5.00000000000000000000e-01) (257, 6, 5.00000000000000000000e-01) (257, 6, 5.00000000000000000000e-01) (257, 6, 5.00000000000000000000e-01) (257, 6, 5.00000000000000000000e-01) (257, 6, 5.00000000000000000000e-01) (257, 6, 5.00000000000000000000e-01) (257, 6, 5.00000000000000000000e-01) (257, 6, 5.00000000000000000000e-01) (257, 6, 5.00000000000000000000e-01) (257, 6, 5.00000000000000000000e-01) (257, 6, 5.00000000000000000000e-01) (257, 6, 5.00000000000000000000e-01) (257, 6, 5.00000000000000000000e-01) (257, 6, 5.00000000000000000000e-01) (257, 6, 5.00000000000000000000e-01) (257, 6, 5.00000000000000000000e-01) (257, 6, 5.00000000000000000000e-01) (257, 6, 5.00000000000000000000e-01) (257, 6, 5.00000000000000000000e-01) (257, 6, 5.00000000000000000000e-01) (257, 6, 5.00000000000000000000e-01) (257, 6, 5.00000000000000000000e-01) (257, 6, 5.00000000000000000000e-01) (257, 6, 5.00000000000000000000e-01) (257, 6, 5.00000000000000000000e-01) (257, 6, 5.00000000000000000000e-01) (257, 6, 5.00000000000000000000e-01) (257, 6, 5.00000000000000000000e-01) (257, 6, 5.00000000000000000000e-01) (257, 6, 5.00000000000000000000e-01) (257, 6, 5.00000000000000000000e-01) (257, 6, 5.00000000000000000000e-01) (257, 6, 5.00000000000000000000e-01) (257, 6, 5.00000000000000000000e-01) (257, 6, 5.00000000000000000000e-01) (257, 6, 5.00000000000000000000e-01) (257, 6, 5.00000000000000000000e-01) (257, 6, 5.00000000000000000000e-01) (257, 6, 5.00000000000000000000e-01) (257, 6, 5.00000000000000000000e-01) (257, 6, 5.00000000000000000000e-01) (257, 6, 5.00000000000000000000e-01) (257, 6, 5.00000000000000000000e-01) (257, 6, 5.00000000000000000000e-01) (257, 6, 5.00000000000000000000e-01) (257, 6, 5.00000000000000000000e-01) (257, 6, 5.00000000000000000000e-01) (257, 6, 5.00000000000000000000e-01) (257, 6, 5.00000000000000000000e-01) (257, 6, 5.00000000000000000000e-01) (257, 6, 5.00000000000000000000e-01) (257, 6, 5.00000000000000000000e-01) (257, 6, 5.00000000000000000000e-01) (257, 6, 5.00000000000000000000e-01) (257, 6, 5.00000000000000000000e-01) (257, 6, 5.00000000000000000000e-01) (257, 6, 5.00000000000000000000e-01) (257, 6, 5.00000000000000000000e-01) (257, 6, 5.00000000000000000000e-01) (257, 6, 5.00000000000000000000e-01) (257, 6, 5.00000000000000000000e-01) (257, 6, 5.00000000000000000000e-01) (257, 6, 5.00000000000000000000e-01) (257, 6, 5.00000000000000000000e-01) (257, 6, 5.00000000000000000000e-01) (257, 6, 5.00000000000000000000e-01) (257, 6, 5.00000000000000000000e-01) (257, 6, 5.00000000000000000000e-01) (257, 6, 5.00000000000000000000e-01) (257, 6, 5.00000000000000000000e-01) (257, 6, 5.00000000000000000000e-01) (257, 6, 5.00000000000000000000e-01) (257, 6, 5.00000000000000000000e-01) (257, 6, 5.00000000000000000000e-01) (257, 6, 5.00000000000000000000e-01) (257, 6, 5.00000000000000000000e-01) (257, 6, 5.00000000000000000000e-01) (257, 6, 5.00000000000000000000e-01) (257, 6, 5.00000000000000000000e-01) (257, 6, 5.00000000000000000000e-01) (257, 6, 5.00000000000000000000e-01) (257, 6, 5.00000000000000000000e-01) (257, 6, 5.00000000000000000000e-01) (257, 6, 5.00000000000000000000e-01) (257, 6, 5.00000000000000000000e-01) (257, 6, 5.00000000000000000000e-01) (257, 6, 5.00000000000000000000e-01) (257, 6, 5.00000000000000000000e-01) (257, 6, 5.00000000000000000000e-01) (257, 6, 5.00000000000000000000e-01) (257, 6, 5.00000000000000000000e-01) (0, 6, 0.00000000000000000000e+00) (257, 4, 5.00000000000000000000e-01) (257, 4, 5.00000000000000000000e-01) (257, 4, 5.00000000000000000000e-01) (257, 4, 5.00000000000000000000e-01) (257, 4, 5.00000000000000000000e-01) (257, 4, 5.00000000000000000000e-01) (257, 4, 5.00000000000000000000e-01) (257, 4, 5.00000000000000000000e-01) (257, 4, 5.00000000000000000000e-01) (257, 4, 5.00000000000000000000e-01) (0, 4, 0.00000000000000000000e+00) 
connections (connected_to_neuron, weight)=(0, 1.24942935696522972044e+00) (1, 5.08709820820598568325e-01) (2, 4.07444402195315802384e-01) (3, 4.87861906668100309137e-01) (4, 2.17586072958616538742e-01) (5, 1.68800118255094999675e-01) (6, 1.29702452463576367592e-01) (7, 1.39736542705321542535e-01) (8, 4.28906369199591686048e-01) (9, 1.39606443068826108211e-01) (10, 2.44537523952951169059e-01) (11, 7.96711360256209671915e-02) (12, 1.22827505462309513606e-01) (13, 1.15823495802649500952e-01) (14, 2.42208120671375315425e-01) (15, 6.63380196985925985054e-01) (16, 5.73841001600961186924e-01) (17, 2.40762063665321879302e-01) (18, 2.31110282124205479448e-01) (19, 1.76369542985090166365e-01) (20, 6.92002439644446298850e-02) (21, 1.48110173058764837961e-01) (22, 1.82710852862470213287e-01) (23, 1.45433252676999080766e-01) (24, 9.24142661557161293473e-02) (25, 5.99882438527716901899e-02) (26, 9.05065957926458192206e-02) (27, 3.97684891007853355549e-02) (28, 1.75955009878632717690e-01) (29, 1.51839958764319299389e-01) (30, -2.45619046925801970405e-02) (31, -2.28561673224936146021e-01) (32, 1.36967796174404354836e-01) (33, -8.05037782617946673369e-02) (34, 9.43569412226992060289e-02) (35, 1.66753511848493934933e-01) (36, 1.82135230733771052991e-01) (37, 1.71503841774253928953e-01) (38, 1.33359888270603604843e-01) (39, 6.52211781709356175352e-02) (40, 8.68263361734454702789e-02) (41, 1.09048855578951653378e+00) (42, -6.32208012348271369829e-02) (43, -1.53119864574395442292e-01) (44, 1.33811418016639843698e-01) (45, 1.83139388354345150622e-01) (46, -6.82309695437725016731e-02) (47, -1.05164093501818611820e+00) (48, -2.11078568502114621852e-01) (49, -7.68451553941199461129e-01) (50, -2.26751562456532163026e-01) (51, -5.22223278292660575417e-02) (52, 5.56807771620170741111e-02) (53, -1.77490071871868215769e-01) (54, 2.08606526098984085271e-01) (55, -1.94131438644548154349e-01) (56, 9.65388025449615966300e-02) (57, 9.30341553681122562791e-02) (58, 4.35514426016352484972e-01) (59, -6.59798604827925155858e-02) (60, 3.71052311533365403173e-02) (61, -2.43945598357753097585e-02) (62, -2.42146006472472363757e-01) (63, -6.56751531622753015327e-01) (64, -4.79072810254485115244e-01) (65, -3.00535447394137789079e-01) (66, -2.52669153942481794495e-01) (67, -7.31770427896813197705e-03) (68, 2.57197140550633640554e-01) (69, 3.96114974727547614064e-02) (70, 1.28057099883243485916e-01) (71, -4.05468737812747989646e-02) (72, 1.32170734268540590595e-01) (73, 5.67785191297158903234e-02) (74, 4.28968282944806392210e-02) (75, 5.89704060881121733262e-02) (76, -1.97730024807905496731e-01) (77, -1.91144157098260825123e-01) (78, 1.72226180552056185036e+00) (79, -4.82724523743917000029e-01) (80, -1.70376578472486495119e-01) (81, -2.18778004952596777377e-01) (82, -7.34870501717027474475e-02) (83, 5.48118631423835309113e-02) (84, 3.08315525861449467315e-02) (85, 1.09690458863694967340e-01) (86, -6.55037245788539362890e-02) (87, -1.64319100653081348606e-02) (88, 1.11507354381045087344e-01) (89, 7.27518784528997930483e-02) (90, -2.62834354170961986830e-02) (91, 4.88348424448427909095e-02) (92, 1.03917577334758903795e+00) (93, -1.09982808994570246952e+00) (94, 8.67634084484414480620e-01) (95, 9.77289226796973165001e-01) (96, -6.16614397787691004282e-01) (97, -1.86583977268933853821e+00) (98, 9.67784071361208336759e-02) (99, 1.07559966139603571667e-01) (100, -2.10093461067617948146e-01) (101, 1.77987319306873698066e-01) (102, -2.06450183870631994235e-03) (103, -1.48797307722926847040e-01) (104, 8.18036180287682324064e-02) (105, -7.83007513248217407176e-02) (106, -1.32521397835655484025e-03) (107, 1.44282658087634407806e-01) (108, -5.81707983785981069813e-02) (109, 3.35084808496686981094e-01) (110, -5.45486317957976085680e-02) (111, 1.94094726757767677139e-01) (112, -3.39544961659656807651e-01) (113, 5.50572566036642355169e-02) (114, -2.89883000570894833192e-01) (115, 1.79112274612156091580e-01) (116, -8.68399453912757912644e-02) (117, -2.82048076790092638877e-01) (118, -6.03184547705610807355e-02) (119, -3.30438620758333023719e-01) (120, -3.52611907298323451476e-02) (121, 1.08455324131988099789e-02) (122, 2.26506599474643119385e-02) (123, 1.90840516238319851672e-01) (124, 9.01750971112921795303e-02) (125, -3.46234377646642485504e-02) (126, 2.71712974521239525316e+00) (127, -6.30701867059662690806e-01) (128, 7.90421825349008205785e-02) (129, 1.74288271801181504639e-01) (130, 3.51273862609746898023e-02) (131, 1.49767015704060490328e-02) (132, -3.15982902054888270538e-01) (133, -2.56512586571691125759e-01) (134, -2.00404759233265283846e-01) (135, 8.62810647110952289029e-03) (136, 4.35040976940749696267e-02) (137, 9.94202143240983382544e-02) (138, 2.11485838520817162611e-02) (139, 2.12237037030343411725e-01) (140, 1.49350775643109001667e-01) (141, -9.94713266472326551604e-02) (142, 1.93719265617747493646e-01) (143, -1.56016981265336585061e-01) (144, 1.71941240143713647281e-01) (145, 3.20063449611620491966e-03) (146, -5.26012901166166557676e-02) (147, 9.04855068089966546596e-02) (148, -1.84052722403040575072e-01) (149, -1.85880352754933808601e-01) (150, 1.65776799896075709151e-02) (151, -5.30779439783343187642e-02) (152, 1.21769455882115143486e-01) (153, 1.03404681829663933068e-01) (154, 1.15985350666462191938e-01) (155, 1.11730944063646434050e-01) (156, -1.77368819686545803327e-01) (157, 5.24571949380292640308e-02) (158, 6.21488969641081703821e-02) (159, 2.81407848100922897139e-01) (160, 1.21582165802372313412e-01) (161, -3.33361981991653621993e-02) (162, 4.20215317382212627528e-02) (163, -1.81338890515017919780e-01) (164, 1.81034685253394674043e-02) (165, 2.23839573720824346406e-03) (166, 1.46692378776865445245e-01) (167, 2.16842401711066667946e-01) (168, -1.23555221897327882630e+00) (169, -1.33973555758601126087e+00) (170, -8.46299939206412221715e-01) (171, 1.44615432368595281387e-01) (172, 8.42261017669564404642e-02) (173, -1.18595260619449005546e+00) (174, -5.40103632365749430910e-01) (175, -1.49637693081080658253e-01) (176, 5.01145288536663957579e-01) (177, 1.69341726889497723452e-01) (178, 3.91902149321842266372e-02) (179, -4.00653552832133802442e-02) (180, -1.24976146850541832908e-03) (181, -7.13303800230836615448e-01) (182, -3.00210008382932380666e-01) (183, -6.70154319152516442237e-01) (184, -1.27871247638302065752e+00) (185, -1.25201108945416206275e+00) (186, -8.81794398531998480095e-01) (187, 1.84154025783077768263e-01) (188, 1.16029553914402325243e-01) (189, -3.67789541097552463711e-01) (190, -2.06005537892642809350e-01) (191, 4.18968117718423849194e-01) (192, 2.05753936162988600167e-02) (193, 1.90909702744229498039e-01) (194, 1.60239198111936320679e-01) (195, 4.79554278790478988315e-02) (196, 1.34401061320359171969e-01) (197, 1.22618449370612100924e-01) (198, -7.95958596811114325875e-03) (199, -1.76682945318537093504e-01) (200, 7.65122681812770849552e-02) (201, 9.41668971006275612456e-02) (202, 1.78228354475420652792e-01) (203, 1.07043649413849140117e-01) (204, 1.95824188087379696954e-01) (205, 8.05149114640689861355e-02) (206, -1.82112858185612569439e-01) (207, 4.63691319043641692055e-01) (208, -1.93959478243344340953e+00) (209, 6.64474244248034612292e-02) (210, -3.20789046948491626821e-02) (211, -1.32028469995604733067e-02) (212, 1.13859436061171187538e-01) (213, 5.88137759172020421761e-02) (214, 2.45788469415218674419e-01) (215, 3.08242769073552691506e-01) (216, 1.64931807936195884423e-01) (217, 3.15871925415036391982e-01) (218, 2.02880382249716412213e-01) (219, 1.20564074779479585287e-01) (220, 1.49634520704250262302e-01) (221, -1.62500768855002197810e-01) (222, -1.77641426673859868790e-02) (223, 5.21072078976496877445e-01) (224, 8.60671290199538252530e-01) (225, 5.06258325524613139734e-01) (226, 4.71999785387084480615e-01) (227, 1.21983000974690822260e-01) (228, 7.73677505186327191256e-02) (229, 3.19023489623302958229e-01) (230, 2.89282097380434255474e-01) (231, 7.31457122261597203483e-01) (232, 2.96300976708142371763e-01) (233, 3.05161471432308151197e-01) (234, 8.29521673613122512148e-02) (235, 2.25640628467810716584e-02) (236, 1.39931614187393832394e-01) (237, 4.45359927970406660469e-02) (238, -7.24345011904254931778e-02) (239, 1.01100530278888323110e+00) (240, 7.61792571813065033659e-01) (241, 6.33920008822426939155e-01) (242, 3.84288077162705632439e-01) (243, 5.45382779408143392175e-01) (244, 1.22044640222614475533e+00) (245, 1.59542085636270036808e-01) (246, 4.77021257040901758284e-01) (247, 1.14319437681341518065e+00) (248, 1.31168529849975207258e-01) (249, 9.29250765756653857030e-02) (250, 7.01374288386711342014e-02) (251, 1.36956997441862488030e-01) (252, 2.39653641228409569619e-01) (253, -5.97802948890779339841e-01) (254, -9.65227288811315031758e-01) (255, 1.03049659659323178396e+00) (256, 1.19409475924246208378e-01) (0, -5.60397036351649280306e-01) (1, -2.93401400925093258643e-01) (2, -9.92655135502324759145e-01) (3, -2.76942269892033798850e-01) (4, -4.15542635124300174798e-01) (5, -5.02103476117370273180e-01) (6, -2.06752334680818383728e-01) (7, -2.52884636221194225580e-01) (8, -1.90046129283523101972e-01) (9, -1.98073052801576693360e-01) (10, -3.83367883407712994881e-01) (11, -2.31337140270731461689e-01) (12, -4.89990830862367776621e-01) (13, -3.29739715697243251924e-01) (14, -3.41511999282653411214e-01) (15, -3.67741974921697634127e-01) (16, -4.11615769830872113566e-01) (17, -7.62843317322749236986e-01) (18, -3.73275226216960742676e-01) (19, -3.40518012685617488255e-01) (20, -2.93025099840591385369e-01) (21, -1.13925204525366918773e-01) (22, -1.15858713163685608794e-01) (23, -3.47777450181797731510e-01) (24, -4.80265677858164874436e-01) (25, -9.10165300434506718830e-01) (26, -2.00067274620415203046e+00) (27, -7.14179445834998483100e-01) (28, -4.52464866309165936187e-01) (29, -8.88598553314591921293e-01) (30, -4.02821967790255475173e-01) (31, -3.32048592860354263578e-01) (32, -3.10249834425387671644e-01) (33, -4.16086160219668488303e-01) (34, -1.90433744199431265187e-01) (35, -1.84814964543680348985e-01) (36, -2.46477452503450322752e-01) (37, -2.40514533563093269031e-01) (38, -2.97116534929919573482e-01) (39, -5.80491450369818196009e-01) (40, -2.43948520165899185308e-01) (41, -5.02752626230510646366e-01) (42, -1.25290748709263999316e+00) (43, -4.72546126434111424253e-01) (44, -1.75233363742037490107e-01) (45, -3.32419678901594739528e-01) (46, -4.21595132342421241578e-01) (47, -2.19395248342003607034e-01) (48, -2.66779366547288787626e-01) (49, -1.30504097010354508379e-01) (50, -1.18907023256433735936e-01) (51, -2.21187984035409096473e-01) (52, -2.88498250742465933705e-01) (53, -3.25886155138342348270e-01) (54, -4.38272936083980935162e-01) (55, -4.10769184660249253582e-01) (56, -3.67984430918947169609e-01) (57, -6.87607690546226280048e-01) (58, -2.15050673540074399614e-01) (59, -2.09409766615621384389e-01) (60, -3.16550360147376030895e-01) (61, -3.36933530721536200758e-01) (62, -1.53684632391549280683e-01) (63, -1.21967542500644177128e-01) (64, -2.84931416382788182950e-01) (65, -1.32909741269330583524e-01) (66, -1.07865644910944205592e-01) (67, -1.21540486454863733146e-01) (68, -1.87815601849308816407e-01) (69, -2.47402191472075150269e-01) (70, -3.01072482418247799885e-01) (71, -3.94870517359164008298e-01) (72, -4.89452845898142974157e-01) (73, -1.90446632727897330328e-01) (74, -1.07923112387887418229e-01) (75, -7.02711924182929270621e-01) (76, -3.98836225579817571507e-01) (77, -4.21530139989610641571e-01) (78, -3.07993828407601366592e-01) (79, -2.93154656596419704861e-01) (80, -1.53560478785598503171e-01) (81, -1.73647581433869657719e-01) (82, -1.56226980885634331164e-01) (83, -3.54066252174345008630e-01) (84, -3.47654971395319922767e-01) (85, -1.08166974114835579002e+00) (86, -3.33393387899688031784e-01) (87, -5.56997708525520551781e-01) (88, -4.86388173602559703568e-01) (89, -6.72025044273776850368e-01) (90, -6.71093248059620006707e-01) (91, -2.52942968729658546057e-01) (92, -3.18682814016405635549e-01) (93, -3.27663280086497810117e-01) (94, -2.18715595553714142740e-01) (95, -1.92224440666192070148e-01) (96, -2.62773312944985348860e-01) (97, -1.46236865011985961438e-01) (98, -2.64852780170131085757e-01) (99, -4.60533351118759481935e-01) (100, -4.69180110566974339914e-01) (101, -2.33628703612392463196e-01) (102, -6.31030982681882623986e-01) (103, -5.79179811846550873788e-01) (104, -4.38685489795333893870e-01) (105, -6.73312409151568536103e-01) (106, -3.15296042803475728977e-01) (107, -1.74917357481902319138e-01) (108, -4.40454941839440727858e-01) (109, -2.18780220433718447515e-01) (110, -2.35571340257211381264e-01) (111, -1.23595904742865317361e-01) (112, -2.22738522479900807882e-01) (113, -1.61412328008849081940e-01) (114, -1.79386199735526052912e-01) (115, -4.60388058082395690285e-01) (116, -4.80608495747115671559e-01) (117, -2.93066475397723680274e-01) (118, -3.45908646655188722896e-01) (119, -6.70322866738175981993e-01) (120, -4.98101855968868245661e-01) (121, -5.79724497007154893069e-01) (122, -6.10969760062347932994e-01) (123, -3.13027777412072882868e-01) (124, -3.52290501781321430119e-01) (125, -1.65948577900727922696e-01) (126, -2.82034508235672332077e-01) (127, -2.56497353014823736839e-01) (128, -2.76184558270371360855e-01) (129, -1.97769102957642495255e-01) (130, -3.22830397770406174462e-01) (131, -2.56292605336702450369e-01) (132, -2.74017920017443239455e-01) (133, -2.93658364279604566782e-01) (134, -3.37040509015699374373e-01) (135, -2.38751984003387235367e-01) (136, -3.33482293094039816683e-01) (137, -2.66268308672124309755e-01) (138, -5.27952841304453857063e-01) (139, -3.86788675838330875401e-01) (140, -1.92741928257637834543e-01) (141, -3.68894978507232407239e-01) (142, -2.32834010613726133387e-01) (143, -2.89119320343098895609e-01) (144, -1.87330805899129260172e-01) (145, -3.27740713093812641166e-01) (146, -5.63335459255634329878e-01) (147, -2.72390279233871157594e-01) (148, -3.16447495427163438819e-01) (149, -2.20538241786920857779e-01) (150, -2.84987672859138230219e-01) (151, -2.51093609903802805761e-01) (152, -1.36155109761257109291e-01) (153, -3.30567882204173491001e-01) (154, -2.23528100956465775040e-01) (155, -2.95667084799089319169e-01) (156, -5.43169196024491540697e-01) (157, -2.14024001770349386886e-01) (158, -2.49486944533211213448e-01) (159, -1.86402412149247603823e-01) (160, -3.50403671063852395484e-01) (161, -1.96311845919432875762e-01) (162, -2.68651986546308951809e-01) (163, -3.00543638160622517130e-01) (164, -2.73314361002912675769e-01) (165, -1.94707134597193548542e-01) (166, -2.03363161064499003983e-01) (167, -1.94957179905288463528e-01) (168, -3.67845819928443340530e-01) (169, -1.54719111552679533528e-01) (170, -2.16783199767784345857e-01) (171, -2.66220802221364072349e-01) (172, -1.25240382337672706559e-01) (173, -3.97193865657914257916e-01) (174, -3.77800214807290979380e-01) (175, -2.83211465458363342851e-01) (176, -2.35500515199416143863e-01) (177, -2.65488344603415138412e-01) (178, -2.76900040928846458144e-01) (179, -3.96081436765193917182e-01) (180, -4.15176277992894471325e-01) (181, -2.70489297186957466934e-01) (182, -3.14433545065655573048e-01) (183, -3.44743128362593909131e-01) (184, -3.47482325868407992964e-01) (185, -2.24371239395430743802e-01) (186, -4.09016859263084286980e-01) (187, -1.40820605115291042075e-01) (188, -1.29450472160334340010e-01) (189, -2.91347287784849695580e-01) (190, -3.87273152006244625323e-01) (191, -2.62695670991457908006e-01) (192, -1.40962280411508045219e-01) (193, -1.26774487512702482839e-01) (194, -1.82600754284686667139e-01) (195, -3.23737292937705478657e-01) (196, -1.69125852654132213804e-01) (197, -1.47332216615285421790e-01) (198, -2.09493096074687135122e-01) (199, -3.25345804449796327518e-01) (200, -3.26140317500778542659e-01) (201, -3.35558576321051293956e-01) (202, -2.27451371058416007553e-01) (203, -1.21670940990698611683e-01) (204, -2.11536231098673088713e-01) (205, -1.71934678749521674401e-01) (206, -1.89900195200367494230e-01) (207, -4.88935800706141343586e-01) (208, -1.79641283511267485506e-01) (209, -1.90098848630106703750e-01) (210, -1.66400195045349669210e-01) (211, -3.34288465325770056680e-01) (212, -1.72463176395675654717e-01) (213, -3.14740172923379080139e-01) (214, -2.24765671970634989263e-01) (215, -4.75176981287446620339e-01) (216, -8.45435150267072277330e-01) (217, -1.82920128006734988846e-01) (218, -2.99717854096481273185e-01) (219, -4.06485527284747405474e-01) (220, -2.61818331736348053340e-01) (221, -2.46159314315983007715e-01) (222, -3.54735674252006250029e-01) (223, -6.46138042413805790964e-01) (224, -3.33068072215094712618e-01) (225, -2.72155249745555605223e-01) (226, -2.11324641359872139601e-01) (227, -2.83542363306407751988e-01) (228, -1.34089519846206928211e-01) (229, -1.85681133647595586478e-01) (230, -2.79904064822100784315e-01) (231, -3.17658257815264521984e-01) (232, -3.09729060201398176400e-01) (233, -2.08089910056485444256e-01) (234, -1.68205338094172596186e-01) (235, -5.72619736193496264853e-01) (236, -3.11262691347296227562e-01) (237, -3.23088155679759625460e-01) (238, -4.73744989229523794094e-01) (239, -3.74603452108679513266e-01) (240, -4.74664994561406039519e-01) (241, -2.16362952605262143235e-01) (242, -5.45529026933138982969e-01) (243, -4.03891289870749958801e-01) (244, -2.44676095836153545404e-01) (245, -2.58078256664656668917e-01) (246, -1.87777885915352632518e-01) (247, -1.93622114502026543281e-01) (248, -3.37515683440428704287e-01) (249, -3.98132204037240922112e-01) (250, -3.09808488451032038036e-01) (251, -2.83317913660096232231e-01) (252, -2.50643907580337055307e-01) (253, -2.05720973479273649964e-01) (254, -3.23876494044811391593e-01) (255, -1.86675649678589544722e-01) (256, -4.26641992836207017969e-01) (0, -5.51106110542708860223e-01) (1, -6.55218843956807961426e-01) (2, -3.74232286114545453781e-01) (3, -2.59857474882958794371e-01) (4, -2.21779263682581440076e-01) (5, 4.45040830033268247634e-02) (6, 3.70502299121310718633e-01) (7, 3.21531375591137369430e-01) (8, 4.83082196907834160449e-01) (9, 3.66862044841369805415e-01) (10, 5.76808675057701503164e-01) (11, 4.63639488049236103695e-01) (12, 4.85853297471743716951e-01) (13, 2.91318197867862671568e-01) (14, 1.63125139559151616231e-01) (15, 9.62140754914868195913e-02) (16, 2.31105835774134543703e-01) (17, -5.88133421367245001754e-01) (18, 2.49749649944939200452e-01) (19, -3.14365666944639923774e-02) (20, -1.54164163114865182536e+00) (21, 6.08276627963509688990e-02) (22, -8.54292100622049965786e-02) (23, -3.83759206516113351992e-02) (24, 2.19337191522440466684e-01) (25, 6.17709366202061183060e-01) (26, 2.62913241577040379671e-01) (27, 2.98664650793311337029e-01) (28, 1.18759464775599649089e-01) (29, 6.09762930303607078586e-02) (30, 2.03714428152676513273e-01) (31, 2.11164949321891781686e-01) (32, 2.47099205072075139844e-01) (33, 1.74087585125065613667e+00) (34, 4.19853152293119757932e-01) (35, 1.75680573784049914865e-01) (36, -5.75991352547478352442e-01) (37, 1.14560938967157979751e-01) (38, -8.64423908948849378797e-02) (39, -3.35166931024603487188e-01) (40, 2.34251276789249340826e-02) (41, 7.89109320762973909247e-01) (42, -4.01529850232163143531e-01) (43, -7.06442754017749918738e-01) (44, -2.89821522493850680657e-01) (45, -2.75060355995861649525e-01) (46, 2.54199069741248118159e-01) (47, 8.06279554570489831455e-01) (48, 4.17091436868737230892e-01) (49, 5.49781153242815734394e-01) (50, 4.38782950869763266333e-01) (51, 2.88505847687791860956e-01) (52, 4.33214345704949710392e-01) (53, 3.03346153211422553397e-01) (54, 1.18330171968590469600e-01) (55, 4.38603453781320276605e-02) (56, -5.25389213160531109992e-01) (57, -6.59067361043707444779e-01) (58, -6.59978009484120331507e-01) (59, -9.48997028743142068130e-01) (60, -3.76994436769031784906e-02) (61, 1.39957893516075654317e-01) (62, 1.74249079965614672716e-01) (63, -1.74148700687968199796e-01) (64, 4.76656879506435648963e-01) (65, 6.60881536757234822055e-01) (66, 4.58654324446226835388e-01) (67, 5.04787227981577157898e-01) (68, 1.48204337069518549130e-01) (69, 3.08885531136159519061e-01) (70, 3.42657940749991452023e-01) (71, 1.40608747677159612310e-01) (72, -4.49602802316552918604e-01) (73, -7.43932134001408562618e-01) (74, -3.67546166226630555141e-01) (75, 5.94993158127800278456e-02) (76, 1.43735858428424317923e-01) (77, 1.55317195588858425470e-01) (78, 1.57702685033064587961e-01) (79, 1.44322794810715548941e+00) (80, 3.74154825356287634719e-01) (81, 4.47718393714659379512e-01) (82, 9.66190452247131070784e-01) (83, 6.76873211038251598737e-01) (84, 3.95327592403682481770e-01) (85, 4.35818648342192749290e-01) (86, 2.67129973696302480679e-01) (87, -5.28458404945037485412e-01) (88, -3.84934487010709480703e-01) (89, -2.78439164145506901082e-01) (90, -3.82764603412405089375e-03) (91, 1.94176567687426443465e-01) (92, -8.23238211461715607697e-01) (93, 1.01019181540592958846e-01) (94, -6.66426254679407109593e-02) (95, -8.58965700958436439993e-02) (96, 4.36640119190166597907e-01) (97, 2.53019260651724531286e-01) (98, 3.77363473415337602468e-01) (99, 3.27465299520355079821e-01) (100, -3.20913251156532186581e-01) (101, -2.00852394816622814577e-01) (102, -2.58172624114238080661e-01) (103, 9.87099884406949512616e-02) (104, -1.12539958121662242441e+00) (105, 1.57119102692074436023e-01) (106, -1.62988934236192664629e-02) (107, 1.23876027011631355268e-02) (108, -1.18961003484761407289e-01) (109, 1.16007334298185993404e-01) (110, -9.07011724384872985993e-02) (111, -5.83627893681828102679e-01) (112, -7.80804688259514101389e-01) (113, -1.73948291065850718651e-01) (114, -2.24145238782165023839e-01) (115, 6.05100054767475983852e-02) (116, -4.77984500907251350088e-02) (117, -4.67073586878559154911e-01) (118, -7.05897671081125166470e-02) (119, -3.57107641202048797791e-01) (120, -1.77081127439353169795e-01) (121, -2.96808792527621691237e-02) (122, -2.25107676525290083605e-03) (123, 4.92445927514885833931e-02) (124, -1.94288835773536006091e-01) (125, -1.16343138260763967473e+00) (126, 9.99286791890778014480e-02) (127, -2.56796385499513446504e-01) (128, -6.23375613218926760695e-01) (129, 2.70898632413765338284e-03) (130, 6.04495659374225911831e-03) (131, 4.88951044512145049925e-02) (132, -1.19242517689899671374e-01) (133, -5.90968178101006880176e-01) (134, -1.16820236356079118489e-01) (135, 4.26020897995647296330e-02) (136, 4.95359172424390467593e-02) (137, -7.10003264737771588866e-02) (138, -2.99880087441610973520e-02) (139, -3.63120195357688135829e-01) (140, -1.15422467354710400755e+00) (141, -8.88791240021248873937e-01) (142, -4.83769796111699679209e-01) (143, -1.31272849943707414777e-01) (144, 1.46254827134130044319e-01) (145, 1.08917783515097454927e-01) (146, 2.34910173544661871059e-01) (147, 1.51147155000230543065e-01) (148, -2.57038838271808567359e-01) (149, 3.31008990721578105765e-02) (150, 2.07930604711465891188e-02) (151, 9.86407618873746949717e-03) (152, 1.79112182048213469665e-02) (153, -4.06870541209300093377e-02) (154, -6.27588778465104635274e-01) (155, -3.99800400552280249533e-02) (156, -1.29839827913972416518e+00) (157, -1.19435905453451507441e-01) (158, -1.31283040077335266815e-01) (159, -3.18352360705685788478e-01) (160, -2.11831210179339396449e-01) (161, 7.45152164161064084480e-02) (162, 4.06868097334648515240e-01) (163, 2.80628352615579890195e-01) (164, -1.11479365846755751335e+00) (165, -1.20918110979129100890e+00) (166, 3.56983050360720624919e-03) (167, -7.19987695805715866015e-01) (168, -1.02560777188573015728e+00) (169, -1.49007727564877234805e+00) (170, -7.59273613983885709011e-01) (171, 5.51272393491410661603e-01) (172, 9.70224316226914462735e-02) (173, -1.93799580427442830199e-02) (174, -1.32697323377048398418e-01) (175, -4.04748224204851458907e-01) (176, 1.40378861603148497039e+00) (177, 5.54872381281719007085e-01) (178, 5.98205198678619765040e-01) (179, 2.23559080052826486540e-01) (180, -6.84987659042422203370e-01) (181, -1.51012737133349506102e+00) (182, -1.05338917472440662948e+00) (183, -1.18242298446536842071e+00) (184, -4.55871633295020894927e-01) (185, -8.05986422009205005779e-01) (186, -1.50585217897099310491e+00) (187, -7.50642705893761474911e-02) (188, -1.18097829890680419695e-01) (189, 4.57936553857413511381e-03) (190, -7.50542624008256661211e-03) (191, 5.63766832349393731683e-01) (192, 5.51522019781702343977e-01) (193, 3.44738638068932234937e-01) (194, 1.57691873619261013761e-01) (195, 1.70762559353875797985e-01) (196, 4.03128821763726885585e-01) (197, -4.74865670460053901358e-01) (198, -1.16155123079374700268e+00) (199, -5.66688371745980967731e-01) (200, -3.49030164910983764504e-01) (201, -2.68449724699597380706e-01) (202, -2.08154777674080387895e-01) (203, -3.89054211512881997770e-01) (204, -1.24199788096555324701e-01) (205, -1.78539092560608514404e-01) (206, 4.89235115056643576903e-01) (207, 7.76870085787145225886e-01) (208, 5.30862194478443627510e-01) (209, 5.07195174049201669142e-01) (210, 3.21248976855464718483e-01) (211, 2.86776568752500238269e-01) (212, 1.11376273606084597034e+00) (213, 9.40707083210129968442e-01) (214, 6.07497282830191775993e-01) (215, 2.34892350671193850253e-01) (216, 3.44808121157273661517e-01) (217, 3.83958800554012047446e-01) (218, 2.93040760072210082487e-01) (219, -7.85967349689706828997e-02) (220, 4.63446694291110017350e-01) (221, 3.27255082362450211431e-01) (222, 1.53908711882436322060e-01) (223, 3.58693282436841121008e-01) (224, -9.28250090333555127886e-02) (225, 1.75240494200973512262e-01) (226, 4.89763837058762641075e-01) (227, 6.10260276480499630480e-01) (228, 5.15653476601650284650e-01) (229, 4.62695608939310276675e-01) (230, 4.81756348972466164060e-01) (231, 3.45571660825982229781e-01) (232, 3.59102881864800660416e-01) (233, 4.59409853227474740400e-01) (234, 2.42124034604475291133e-01) (235, 1.70927556372086619785e-01) (236, 7.74801737000411216982e-02) (237, -3.87354106656639385342e-01) (238, -1.06736202032086802127e+00) (239, -4.01282780117762527539e-01) (240, 2.02002154495311475602e-01) (241, 3.25667295483592800220e-01) (242, 7.55701547895145986367e-01) (243, 6.12810428807538332130e-01) (244, 1.56612810130717661217e+00) (245, 6.94927489904321182834e-01) (246, 5.14945421027111938095e-01) (247, 2.76293503504399018400e-01) (248, 4.01614381391648789243e-01) (249, 5.10384769668420085198e-02) (250, 3.81789506309798756800e-02) (251, -3.26365963146697024566e-01) (252, 1.99729402447767143136e-02) (253, -3.14333651806513958427e-01) (254, 2.15920396158722871505e+00) (255, -3.66260026697715135313e+00) (256, -6.25271351629502342151e-02) (0, 8.01547268426122260128e-04) (1, 1.02292214984112728171e-01) (2, -2.93621990646153741000e-01) (3, 2.00130331783867354556e-01) (4, 1.08435627452609692489e-01) (5, 2.57003039628274643214e-01) (6, 1.62924171320173949429e-01) (7, 1.47343034604123235276e-01) (8, -1.91326663946126851457e-01) (9, -1.27112165818850569865e-01) (10, -1.93065949477518844501e-01) (11, -1.58351101674403055286e-01) (12, 8.64801875721045998358e-02) (13, 2.87558089502405411775e-01) (14, 3.20156498232116948355e-01) (15, 2.54268279749759962272e-01) (16, -1.09268390454207407758e-02) (17, 1.10118799836850675411e-01) (18, 2.80036818590077729585e-01) (19, -2.07881003292602839494e-01) (20, -6.23050078523856437629e-02) (21, 3.06151584203534065515e-03) (22, -1.08011500017008987840e-02) (23, -1.33750563336613781384e-01) (24, 1.41041987446338279444e-01) (25, 9.21668526537161025836e-02) (26, 1.90269105345362843362e-01) (27, 1.51576916068566380780e-01) (28, 1.67750219326738864156e-01) (29, 2.57796825858068623383e-01) (30, 1.72848976630931683296e-01) (31, 1.73786328716039106812e-01) (32, 2.79641061334251761483e-01) (33, -2.37819027313602576745e-01) (34, -1.87764312385954694473e-02) (35, 6.36336585784171102770e-03) (36, 2.67199864511134775602e-02) (37, -5.52767148439560138118e-02) (38, -7.84652195583930289757e-02) (39, 1.95695288925181259954e-01) (40, 2.54971085936464447741e-01) (41, 1.13374851202661039440e-01) (42, -4.57144506643266806956e-02) (43, 1.47232527958561426606e-01) (44, 2.18249783270444142058e-01) (45, 2.15533366675856347117e-01) (46, -1.96341399157340612547e-01) (47, -1.82296582561191716776e-01) (48, -1.15943315534525220878e-01) (49, -1.41216591410825292874e-01) (50, 5.47466640897826123391e-02) (51, 3.24677138830214082055e-02) (52, -2.82784467423171440026e-02) (53, -2.63830033078860590190e-02) (54, 2.58141142544537016690e-01) (55, 1.91010413675573725856e-01) (56, 1.08032326540631037903e-01) (57, -1.88210193685935861518e-01) (58, 1.25164138135586244793e-01) (59, 1.81615839886735158659e-01) (60, 1.78636116300275121782e-01) (61, 2.84673059083959845150e-01) (62, -2.69721231725157037373e-02) (63, -1.30986941024467951067e-01) (64, -1.85883973274928067376e-02) (65, 8.50472424893057993289e-02) (66, 1.18150612005958152717e-01) (67, 4.15809637386421043770e-03) (68, -1.02120278490694937901e-01) (69, 1.97913008196717754572e-01) (70, 1.52117557127237790215e-01) (71, 1.58591125827094100997e-02) (72, -1.08445823166996260789e-01) (73, 8.72057087942146591519e-02) (74, 2.05469474604849711152e-01) (75, -1.37820663400734927384e-01) (76, 2.71458153011920944042e-01) (77, 1.84082155622599885625e-01) (78, -4.59394076139535423309e-02) (79, -1.01378491452032051812e-01) (80, -6.51300263997685591200e-02) (81, 9.05759305109894441443e-02) (82, 1.04013728981348613223e-01) (83, 5.30996830418944756880e-02) (84, 1.83645518466153956361e-01) (85, 1.67965717876537384834e-01) (86, -2.39630087364534685723e-02) (87, -7.78929218683040158755e-02) (88, -1.26152469758594176774e-01) (89, -8.45393960274241212938e-02) (90, 1.27091294652032560375e-01) (91, 6.10378477438668284871e-02) (92, 1.51933179911159815800e-01) (93, -4.77730895221019496999e-02) (94, 1.74971223239496140311e-02) (95, -1.24816083953130568807e-01) (96, 5.99936826954816232460e-02) (97, 4.04092464703897577549e-03) (98, 2.21299340001685773682e-01) (99, -3.47692288497503609879e-01) (100, 1.41857453688176315953e-01) (101, 1.39972865774195515121e-01) (102, -5.31912945886321569811e-02) (103, -2.90250959237475514296e-01) (104, -1.36140310468800457278e-01) (105, -3.90843101348823454555e-02) (106, 7.20990820557455558415e-02) (107, 1.20393954044437548334e-01) (108, 2.91206195542877854798e-01) (109, -2.01317747990354574406e-02) (110, 6.62256103817073366047e-02) (111, -4.90214284553272261480e-02) (112, 1.19017684476294918761e-01) (113, 7.23833521821629910509e-02) (114, -2.89764986282978372067e-02) (115, 1.81071466094810062941e-01) (116, 1.46476656391184650863e-01) (117, -8.93712739034279862738e-02) (118, 2.43221497534556567455e-02) (119, 5.66145092342399541829e-02) (120, -5.87077136204594840496e-02) (121, 8.27117034476383683472e-02) (122, 1.54864435999398863952e-01) (123, 1.57761838568545892381e-01) (124, 2.03728805113412347882e-01) (125, -2.62442418674497975062e-02) (126, 1.87894182947039717346e-02) (127, -8.57880636956923348091e-02) (128, -5.22553001068007914875e-03) (129, -7.84626098880116529255e-02) (130, -6.83699180447505522329e-02) (131, 1.87261998068299545528e-01) (132, 2.53182583935073146630e-01) (133, 1.69049611315156861346e-01) (134, 1.07308134711204539169e-01) (135, 1.18597165610248800327e-01) (136, 2.35561847987513783842e-01) (137, 7.27075628470860158004e-02) (138, 1.41044199596281172315e-01) (139, 1.33425992433991141839e-01) (140, 7.30311595675801061844e-02) (141, -1.92080714781053651929e-01) (142, -8.34623469799584127848e-02) (143, 1.17442221051627215811e-01) (144, -7.88465141698982963092e-02) (145, 8.70555202985739823296e-02) (146, 8.65042922488642312961e-02) (147, 2.35778593101544087229e-01) (148, 1.38545491486390531799e-01) (149, 1.63172179619721052779e-01) (150, 1.23159225848961398353e-01) (151, 8.96700563457244193000e-02) (152, 6.60649398208375537855e-02) (153, 1.74484873872255752403e-01) (154, 2.90969775048307066623e-01) (155, 2.18611032998870469246e-01) (156, 1.56449959982795067104e-01) (157, 1.26039949242201687607e-01) (158, 4.10098941337101938198e-02) (159, -2.24268076419233991503e-01) (160, 1.69986707755555473132e-02) (161, -1.15888340023805325174e-01) (162, 1.08871694145776215512e-01) (163, 2.09992737101767718011e-01) (164, 1.03512339225265329046e-01) (165, 2.88110266566748152162e-02) (166, 9.45759125338739153888e-02) (167, 2.38791799291533740623e-01) (168, 2.71663094349120837201e-01) (169, 2.81528084576259440830e-01) (170, 1.53455832873763658997e-01) (171, 1.21380393381043005796e-01) (172, -8.49036420466966479381e-02) (173, -7.85263299766565392446e-02) (174, 2.00839038231737515572e-01) (175, 1.21290860492735852461e-01) (176, 1.67550125906200733650e-02) (177, -1.31859882485376861405e-01) (178, 2.24390060995312806691e-01) (179, 2.01326681510527516483e-01) (180, 1.59358800406435741071e-01) (181, 3.11603893387688346550e-01) (182, 1.61366248721214688988e-01) (183, 1.90695128823462456413e-01) (184, 3.06458033475673963242e-01) (185, 1.19977531878096385642e-01) (186, -1.40152402911709522693e-01) (187, 8.89412639003529653658e-02) (188, -5.56241971526212283794e-02) (189, -3.73487754584701792115e-02) (190, 1.51922454625540437334e-01) (191, 1.03593199188246734566e-01) (192, -1.42305004388848660435e-01) (193, -1.01519120221570821605e-01) (194, 1.49105996998765283346e-01) (195, 1.35710954439423714391e-01) (196, 1.70118708575912797043e-01) (197, 2.62063364648234708998e-01) (198, 1.51073790263992258076e-01) (199, 2.28065041244563088130e-01) (200, 2.99325449360686279832e-01) (201, -3.91169156241343352054e-01) (202, -4.07398541778973034833e-03) (203, 8.58109506526681803384e-02) (204, 1.49849862416793003228e-02) (205, 6.84340590521768932231e-02) (206, 9.99542897771978633426e-02) (207, 2.82236363269726564518e-01) (208, 2.52648857148955519047e-01) (209, 3.00481761266799096699e-01) (210, 2.18206611735038080724e-01) (211, 3.55311660943557372505e-01) (212, 2.16613616507743661499e-01) (213, 2.31960460879158308911e-01) (214, 1.51103610954621520035e-01) (215, 9.79580626589311859176e-02) (216, 1.84058555871876000642e-01) (217, 8.01060639892388869077e-03) (218, -4.15199714947267345400e-02) (219, -2.40367521054460131502e-01) (220, 3.78677363422537660576e-02) (221, 1.21055300813282459838e-01) (222, 8.68594518196739995286e-02) (223, 1.11834254848713843256e-01) (224, 2.73494285004863391109e-01) (225, 2.98995487784625646466e-01) (226, 1.18208446002000117092e-02) (227, 1.86651029460361911338e-01) (228, 1.15057028690535884108e-01) (229, 1.57771312926008572264e-01) (230, 7.85600927807833110394e-02) (231, 1.71596508483086551689e-01) (232, 1.64254756937313534104e-01) (233, 1.55750955609320451689e-01) (234, 1.78941697663234589033e-01) (235, 1.48550485647763984287e-02) (236, 1.39355185278491944256e-01) (237, 1.36534909952021860091e-01) (238, 2.35580977971851346364e-01) (239, 1.08572570565400403769e-02) (240, 1.60374052176112447121e-01) (241, 1.81119686830141291001e-01) (242, 7.20153034347103676582e-02) (243, 6.20036898550783283079e-03) (244, 2.23801224829086514712e-01) (245, 9.51161106597014915920e-02) (246, 1.43065750220512044599e-01) (247, 1.18591274292530815537e-01) (248, 1.92307249801714957860e-01) (249, 1.47406756723244269924e-01) (250, 1.27836464162744189998e-01) (251, 2.04289848185010586290e-01) (252, 2.80776599389618297664e-01) (253, 2.81980239738169435881e-01) (254, 2.87613620217485599362e-01) (255, 1.74396782029954927618e-01) (256, 1.71051269882719347848e-01) (0, -3.11935222573844483929e-01) (1, -5.58091007574088027177e-01) (2, -1.02293348527247363045e+00) (3, -2.69894793497870877363e-01) (4, -1.02086129176308726407e+00) (5, -1.04739641881001932511e+00) (6, -1.13234583399140920079e+00) (7, -1.19491594817791613181e+00) (8, -1.24475522044774988828e+00) (9, -1.20412798766583284404e+00) (10, -1.12148919657332091226e+00) (11, -1.41160595994835502687e+00) (12, -2.13885147776362805061e+00) (13, -1.14953354025207815647e-01) (14, -1.91134309448244665841e-01) (15, -1.92007162779882847858e-02) (16, -4.73471481165534335833e-01) (17, -1.07266113920570944629e+01) (18, -1.36254559431410715575e+00) (19, -4.82896395048001525474e-01) (20, -1.10034086689994525798e+00) (21, -6.50799379971991776017e-01) (22, -6.44746463545681436358e-01) (23, -9.00887564617753544560e-01) (24, -2.09747346484037988645e+00) (25, -1.26282294988959531423e+00) (26, -1.85615679397754873570e+00) (27, -4.79807896749022855243e-01) (28, -1.47195677809334068975e-01) (29, -1.21174728851230795179e+00) (30, 3.05188888407449086804e-02) (31, -6.81412853726790918030e-02) (32, -1.08967723043733055732e+00) (33, -6.02738488229130342511e-01) (34, -6.05825140476772383558e-01) (35, -2.63569814183110373573e-01) (36, -3.52502745321794652700e-01) (37, -3.53172327389772555684e-01) (38, -4.96996836948220055419e-01) (39, -2.02404675560142699453e+00) (40, -2.70384275453831202096e-01) (41, -1.39469630277984368849e-01) (42, 1.14145220760527799087e-01) (43, 3.52562045855876124434e-02) (44, 2.54280400688710883639e-02) (45, -1.59708207642705567186e-02) (46, -6.78007236765810095136e-01) (47, -8.59991337707835090676e-01) (48, -5.43830786842898317168e-01) (49, -5.95210045113760966018e-01) (50, -6.88783124824320358570e-01) (51, -4.81764602608338754486e-01) (52, -4.07016611860179955418e-01) (53, -6.08230696236820800316e-01) (54, -2.03353659318488055874e+00) (55, -5.28074147812004124347e-01) (56, -8.60300449465426220197e-02) (57, 9.08953289375482864632e-02) (58, 8.79613594207500903988e-02) (59, 9.25350191796623505747e-02) (60, -7.44905709454932174474e-02) (61, 1.12068500972117464365e-02) (62, -7.93175609752822974308e-01) (63, -4.50886356577400448931e-01) (64, -5.03463877544130911090e-01) (65, -5.16021848589434561916e-01) (66, -2.99621725634436730790e-01) (67, -2.27538731286931278364e-01) (68, -5.44978740574684539233e-01) (69, -1.27433075375737514534e+00) (70, -2.59041435775453077195e-01) (71, -3.78885347807717653978e-01) (72, 1.26232132596035162564e-01) (73, 2.86816633005722576577e-02) (74, 2.00292782817742737178e-01) (75, -5.76563430385609795858e-02) (76, -8.69778993821346130266e-02) (77, -8.57867101672201259888e-01) (78, -4.02167727680055930861e-01) (79, -3.22346525260354566100e-01) (80, -3.83978915402948262070e-01) (81, -4.55144877283551463343e-01) (82, -1.07530785816432869484e-01) (83, -5.45240512910922903167e-01) (84, -2.43404272993212345000e+00) (85, -7.39886504649155618552e-01) (86, -7.18171367232338098141e-01) (87, 7.09704068051063008404e-02) (88, -1.13166214586190055913e-01) (89, -1.76640118015041515387e-02) (90, -9.31028905240948306821e-02) (91, -1.51689469543013738528e-01) (92, -3.03241761230827952533e-02) (93, -7.06760177830209945782e-01) (94, -4.89191261064376603507e-01) (95, 1.90532592487828722483e-01) (96, -6.34629463371244262326e-01) (97, -6.11354154641383984448e-01) (98, -2.83159037104413702224e-01) (99, -1.29960970235053974164e+00) (100, -2.51317825751012779989e+00) (101, -5.97828967350431561556e-01) (102, -2.64333276404648764846e-01) (103, -1.60614708801169792096e-01) (104, 3.31389023699361837116e-02) (105, -8.16582491098084978232e-02) (106, -8.98165754463483984038e-02) (107, -1.33607551953005110335e-01) (108, -8.17433479619476099920e-01) (109, -2.65813043621683509077e-01) (110, 2.11208426819483457981e-01) (111, 1.31283617652454442926e-01) (112, 1.41608978231563863506e-03) (113, 3.46720920788326641970e-02) (114, -6.01628901059583554023e-01) (115, -6.81387205338469414961e-01) (116, -1.18003383153633248370e-01) (117, -1.27538544039980356049e-01) (118, -1.43147023316841703888e-01) (119, -1.04207204142515816314e-01) (120, -7.28931105041468879735e-02) (121, -9.36276686813660753705e-03) (122, -1.59911117061785568172e-01) (123, -1.32157317533132007137e-01) (124, -4.90103925480440960616e-01) (125, -3.72571464468215818311e-01) (126, -3.41477384459578148235e-01) (127, -6.87817308783680414486e-01) (128, 1.19405977625157810884e-01) (129, -6.15781645308268510419e-01) (130, -4.78853414649899389310e-01) (131, 1.28743739338151530482e-01) (132, 3.81006976772185548819e-02) (133, 3.60349614998728487447e-02) (134, 4.48192946107420081558e-02) (135, 1.59746726815987977188e-01) (136, 1.26968064252977685946e-01) (137, -2.79671047918948145750e-01) (138, -1.62519736814043275208e-01) (139, -1.71031022950253547288e-01) (140, -1.32870812654641654721e-02) (141, -1.02291120219579423356e+00) (142, -6.17941552444795871857e-01) (143, -3.48213243714827591635e-01) (144, -3.61674122578339585221e-02) (145, -7.84140362679377367350e-01) (146, -7.03696002923006491692e-01) (147, -5.95571971585640291824e-02) (148, -8.65488555712556062449e-02) (149, 1.62416563027812071995e-01) (150, 5.77303847042190329542e-02) (151, 5.12089033413103064674e-02) (152, -1.04312670476475813364e-01) (153, -2.04348755173834856214e-01) (154, -2.25364310366007902786e-01) (155, 3.46512376643718644775e-02) (156, -4.25584777545227194162e-02) (157, -1.33136185941290574597e+00) (158, -1.20567896801593943401e+00) (159, -4.09855997247260628313e+00) (160, -3.73001913763669826207e-03) (161, -2.44470864741273974374e+00) (162, -1.40726471509642347968e+00) (163, -4.49343888365988652911e-01) (164, -1.84615758773641391866e-01) (165, 1.71832481965099627408e-02) (166, 5.49321361702117330617e-02) (167, -5.67145814515352952867e-02) (168, -7.69016304502850300828e-02) (169, 1.74247270340826335144e-02) (170, -2.62576420922249476053e-02) (171, -4.73748287824029334914e-01) (172, -3.57538723515675560538e-01) (173, -6.02094578161237903302e-01) (174, -6.08657701119630356601e-01) (175, -1.16394968360812645081e+00) (176, -8.56196699053046739181e-01) (177, -1.23520428600473120007e+00) (178, -1.38663227288723578390e+00) (179, -2.68149201114554813774e-01) (180, 1.04875710507969344132e-01) (181, 4.76252196799559907037e-02) (182, 3.31810265491122233228e-02) (183, -2.75745344084645394728e-03) (184, -1.79480396430664983221e-02) (185, -5.02491536224161788882e-02) (186, -5.74299140450603817776e-01) (187, -2.57139980842464865862e-01) (188, -4.22648182277382877814e-01) (189, -4.76208958288849737439e-01) (190, -1.34865985325055892652e+00) (191, -1.25994443359087737733e+00) (192, -1.89718794138769686342e+00) (193, -8.91281800759215370178e-01) (194, -7.90097491903154147685e-01) (195, -1.71806167776705431827e-01) (196, 1.38147583786467076372e-01) (197, 2.01586315016103245767e-01) (198, -9.37337509334129070915e-02) (199, -1.48457027054020133938e-02) (200, -3.66456186717887044679e-01) (201, -6.48684156901995212507e-01) (202, -5.24903366577489816081e-01) (203, -2.24767353211177772776e-01) (204, -3.28649871669917936767e-01) (205, -4.33011717846301991131e-01) (206, -1.04560763438218184973e+00) (207, -5.52398158689770268914e-01) (208, -1.28333365433210810913e+00) (209, -8.68323425175027807654e-01) (210, -7.42061860015393093271e-01) (211, -8.22614603493439733306e-01) (212, -5.84655248388266768345e-01) (213, 1.03933916923384328523e-01) (214, 1.13209332689534244998e-01) (215, -3.67605584133877949515e-01) (216, -2.41520579262213663796e+00) (217, -5.01068366746829196856e-01) (218, -6.55622953560355825608e-01) (219, -4.30349207037622472072e-01) (220, -4.10214788789877715658e-01) (221, -1.27205838175558327841e+00) (222, -2.84892696552653423847e-01) (223, -1.77725911008376452616e-01) (224, -2.15294102965880335132e-01) (225, -1.16667257219026909709e+00) (226, -1.38442918239779810818e+00) (227, -1.29492374401903442838e+00) (228, -3.25903132980045562306e+00) (229, -1.38138769507337610953e+00) (230, -2.38391362294128850152e+00) (231, -2.12925967202070776096e+00) (232, -1.63715215175315864649e+00) (233, -1.34375160732618104120e+00) (234, -1.46813821205367367462e+00) (235, -3.24568171060194332611e+00) (236, -1.74632757456298137733e+00) (237, -5.55191509954927164827e-01) (238, -3.55268170775002278816e-01) (239, 9.42306778581742249257e-02) (240, -9.57712970536072905059e-02) (241, -2.65740971089017286033e-01) (242, -6.42614161866408517554e-01) (243, -2.78663579986718712433e+00) (244, -2.04784151957419346957e+00) (245, -2.09881310569340229222e+00) (246, -2.01612764091140750367e+00) (247, -2.38453407580884224615e+00) (248, -1.44856607527712810679e+00) (249, -1.43155038763279662817e+00) (250, -1.51200064898198105467e+00) (251, -1.51629647266089828683e+00) (252, -7.99446447177092761605e-02) (253, -1.47667347250294345162e-01) (254, -5.30422302470541895403e-01) (255, -1.47829931102933881393e-01) (256, -9.03806201244428009112e-01) (0, -3.96632857817631134800e-01) (1, -4.66530574880332782328e-01) (2, -1.11680139337829298363e+00) (3, -1.17104287685186059242e+00) (4, -5.99285787752048326738e-01) (5, -4.98498269900301216317e-01) (6, -2.25911806841122164702e-01) (7, -2.76420079822017605853e-01) (8, -2.17665405968856001673e-01) (9, -2.72116471089204836620e-01) (10, -6.46213700358243992028e-01) (11, -5.04326675714074745827e-01) (12, -5.95373426447236453463e-01) (13, -1.03571826546406522973e-01) (14, -4.42657758425910652367e-01) (15, -5.33657120896412040523e-01) (16, -3.62144283138036315872e-01) (17, -4.28420913786177803839e-01) (18, 2.34146099511655769732e-01) (19, -3.15468875534680948114e-01) (20, -3.79479883048488508823e-01) (21, -2.86805176542041517784e-01) (22, -2.71015211131893585250e-01) (23, -1.60389486129972591577e+00) (24, -8.23464904259085583860e-01) (25, -1.06152215388145204633e-01) (26, -9.10324042408782729829e-02) (27, -8.85728397668400641018e-02) (28, 8.69060557026122143531e-02) (29, -1.06097672675363585704e+00) (30, -2.21770284355730790127e-01) (31, 5.98043468117355828118e-03) (32, -2.34257182563168936396e-01) (33, -1.97233915831610817637e-01) (34, -2.55728235957799032718e-01) (35, -1.72483485273685871464e-01) (36, -1.75166486024387890730e-01) (37, -1.31296846694861524263e-01) (38, -4.71649138771685405569e-01) (39, -2.65268585962445513360e-01) (40, -1.53176885443335131232e-01) (41, -1.27347515249647297297e-01) (42, -2.23375138489320418378e-01) (43, -3.82370271787060567181e-01) (44, 4.17464494192210933132e-02) (45, -1.11352690615196276563e-02) (46, -3.91857063070865818677e-01) (47, -6.23596635586699254983e-02) (48, -3.89375906112528424874e-01) (49, -8.34300662848810326011e-02) (50, -9.48992541723665539166e-02) (51, -1.63296533927445391976e-01) (52, 2.81616348810035166395e-01) (53, 1.05930949337420379774e-01) (54, 2.75374213552434909946e-01) (55, -1.20090886932309334756e-01) (56, -3.48002454739264055483e-02) (57, -7.62250501527647283950e-01) (58, -4.98265309442894099856e-01) (59, -4.04726046055870793128e-03) (60, -2.79119313018253989434e-02) (61, -3.64095636104251815790e-02) (62, -1.58641995219558601393e-01) (63, 2.53103809265943058282e-01) (64, -8.54870868107684006576e-02) (65, -1.78896715280291940253e-01) (66, -1.43163600730390111471e-01) (67, 2.50006563991702013272e-01) (68, 1.33524080995659738536e-01) (69, 9.55637391236748012791e-02) (70, -9.67895192905144780005e-02) (71, -6.87796249714198171255e-02) (72, -8.08736045653780988296e-01) (73, -2.49799039589699733988e-01) (74, -3.82637365466439449690e-01) (75, -4.09200089372752165429e-02) (76, -3.70649983601450197512e-02) (77, -1.02829803637145467121e+00) (78, -3.17320505013489961854e-01) (79, 2.53885843482137496530e-01) (80, -1.02448174844217337887e-01) (81, -2.63647441229724506517e-02) (82, -9.03192407760089049917e-02) (83, 2.89443546400500018034e-01) (84, -3.20117546067633984563e-01) (85, 1.98347553800249626343e-01) (86, 9.74812727548251961585e-02) (87, -6.33525496387059461334e-01) (88, -4.57289485177964527551e-01) (89, -4.19266893796818418405e-01) (90, 1.34383749463667295787e-01) (91, 1.32954490601289471163e-01) (92, -3.50644433953780157442e-02) (93, -3.76464201708123058499e-01) (94, -1.60345975453635269936e-01) (95, 3.54254670232280632902e-01) (96, -1.74935454896383124623e-01) (97, -1.69242383283910613478e-01) (98, -2.80839376755135428088e-01) (99, -5.46184873478922749968e-01) (100, 6.64680290061623602060e-02) (101, -1.34269895482164752787e-01) (102, -2.37323836414469219180e-01) (103, -6.56162627164160072724e-01) (104, -2.02763992023533672071e-02) (105, 2.91513507878620563296e-02) (106, -1.67715596010338530153e-02) (107, 3.27120403997539915819e-02) (108, -3.72721698466508932768e-01) (109, -3.15992429444830413843e-01) (110, -2.32531244891178517920e-01) (111, 3.50169155700118750474e-01) (112, 2.49762954287250038554e-01) (113, 2.60099662854387680966e-01) (114, -2.85497099977490009781e-01) (115, -2.55313688246627423784e-01) (116, -1.01937566861278514074e-01) (117, -2.43776102464453192642e-01) (118, 1.57094420926420397233e-01) (119, -9.16572528926330315491e-02) (120, -8.16099028906989570897e-02) (121, -1.05733232581467023747e-01) (122, 1.02359112652169112478e-02) (123, 1.43149727775767864058e-02) (124, -3.22155372489534019831e-01) (125, -2.85240653387499432103e-01) (126, -4.47006486241754222299e-02) (127, -2.86168526395609523760e-01) (128, 2.15862461591688536977e-01) (129, 1.75516064072962496567e-01) (130, 2.53743643620204351041e-01) (131, -7.91319528052568527121e-02) (132, 9.04653386871814291226e-02) (133, 1.31742757382958014523e-01) (134, 1.56094282550993779246e-01) (135, 9.30891024653269366640e-02) (136, 8.93876749850959495536e-03) (137, -8.48815666700146409518e-01) (138, -1.03063077278955569915e-01) (139, -1.28705909771816118248e-01) (140, 1.95023090426146988863e-01) (141, -4.14288484856735028661e-01) (142, -1.01901088476978207709e-01) (143, -3.74455390671732279984e-01) (144, 2.79907360645049230197e-01) (145, 1.53563167633582603466e-01) (146, 1.22671832639879505034e-01) (147, 2.04848572755967878178e-01) (148, 1.40037630759039383177e-01) (149, 2.28225306094613278329e-01) (150, 2.09041272011850041979e-02) (151, -1.20038220307913168217e-01) (152, 3.74872202425468245557e-02) (153, -1.27537933404892958600e-02) (154, -8.03016882479940935502e-02) (155, -1.22845409625267992793e-01) (156, -1.27480459641201415710e-01) (157, -8.46228475179155892327e-01) (158, -8.33730641395656779657e-01) (159, -4.84706478150790709414e-01) (160, 2.16975328007111528672e-01) (161, 1.99828998574936717025e-01) (162, 1.54256865610634952279e-01) (163, 1.51968455161760385153e-01) (164, -9.20047185274302896374e-03) (165, -7.76648105954884510060e-02) (166, -2.17680468458053999470e-01) (167, -4.79307332950335451827e-01) (168, -2.16545195310686999779e-01) (169, 3.70597718702939879498e-02) (170, -1.01551378132204467297e-01) (171, -8.21974723903028614558e-01) (172, -6.34575467346188415441e-01) (173, -3.38486060877047301165e-01) (174, -2.46702222914044089208e-01) (175, -2.93952651610253246073e-01) (176, 1.76018006177099894938e-01) (177, 2.24746530794145304988e-01) (178, 2.46418765597586686411e-01) (179, 1.15333209848686016330e-01) (180, -1.98237062005266334586e-01) (181, -5.83062586826160744735e-02) (182, -7.30397797797184278323e-01) (183, -2.01427854122081750887e-01) (184, -5.53496795084180259749e-01) (185, -5.78235450157194019738e-01) (186, -1.16589346843953567401e+00) (187, -2.62028389997467969774e-01) (188, -2.09335966763314701433e-01) (189, -2.11702541600266108679e-01) (190, -3.89364519234797701319e-01) (191, 1.85085117813307553636e-01) (192, 2.78736089627956040715e-01) (193, 3.15575535279741303807e-01) (194, 1.43738990320925852373e-01) (195, 1.54651809421886915485e-01) (196, 1.70065537097045132477e-03) (197, -4.03959152954146624714e-02) (198, -2.80608243609410279440e-01) (199, -5.64814918982845526330e-01) (200, -2.88355091809285246640e+00) (201, -2.03037468833099543630e+00) (202, -6.70157838539555128499e-01) (203, -1.93093983478796749065e-01) (204, -2.06680335383869845378e-01) (205, -3.06304204846325645040e-01) (206, -2.16743787778570284885e-01) (207, 3.79553616609759310666e-03) (208, 1.72895941878026537797e-01) (209, -2.35859168765050836170e-01) (210, -3.88803442252468378637e-01) (211, -5.79205389623549060651e-01) (212, -2.07078018941732611147e-01) (213, -1.31242991740124936850e-01) (214, -3.83678360046765420943e-01) (215, -5.91729765166503085538e+00) (216, -2.81297139887426439486e+00) (217, -7.56936925061609588994e-01) (218, -2.53893590932825763407e-01) (219, -1.90285178090382783855e-01) (220, -1.65620812593601035578e-01) (221, -6.24036674078552344724e-01) (222, 1.12228819601003615425e-01) (223, -2.29256458248211295037e-02) (224, -4.45768238042407338728e-01) (225, -7.77158318226918581884e-02) (226, -5.80506485021952234327e-01) (227, -5.18399083903128055084e-01) (228, -7.04024480572039368376e-01) (229, -4.89837449378098921393e-01) (230, -6.91192603457720045057e-01) (231, -5.36881419085552313852e-01) (232, -5.50900257189548159253e-01) (233, -6.71829304360391788009e-01) (234, -6.91162366890420432064e-01) (235, -8.69582026494485793577e-01) (236, -1.21891014861168725525e-01) (237, -3.66103034341588084999e-01) (238, 8.81564394293187364449e-02) (239, -4.95742307357069034168e-01) (240, -9.14787212061097698701e-01) (241, -5.21366109149535184031e-01) (242, -5.65987223981392229000e-01) (243, -1.58408256304158917560e-01) (244, -1.48196355744473123872e-01) (245, -1.47363586071670132904e-01) (246, -1.43798808287063512035e-01) (247, -1.71588205407539301506e-01) (248, -6.76946678618621788814e-01) (249, -8.20787046299667810700e-01) (250, -4.55193281025795121186e-02) (251, 1.47669805679503298584e-02) (252, 2.05305183495628457147e-01) (253, -2.96002895480827810104e-01) (254, -6.33578290773331276320e-01) (255, -5.14025844708472345879e-01) (256, -9.47232773240813674676e-02) (0, 3.40765502378411189177e-01) (1, 5.47321907051043554659e-01) (2, 2.80769343845850116725e-01) (3, 5.95384426855601889272e-01) (4, -1.86130487217228601793e+00) (5, -8.26412115479777803495e-02) (6, 4.90242601851269887980e-01) (7, 5.04684038441771232186e-01) (8, -2.79601062490574481245e-01) (9, -3.24753886576351125104e-01) (10, 2.69702850485456446794e-01) (11, -3.19953015409429677995e-02) (12, 3.29622616101150789358e-01) (13, -2.25639757193278417402e-01) (14, 3.47930468072389226242e-02) (15, -9.60884113917819693285e-01) (16, 3.26599365963282539660e-01) (17, 3.90160841551442649777e-01) (18, 3.87157902768844763841e-01) (19, 4.44666243364176538844e-01) (20, 5.21701320963971926226e-01) (21, 3.12733400674814476794e-01) (22, 4.79826455901694925998e-01) (23, 3.10699475335447672375e-01) (24, 4.04590446166891493096e-01) (25, -1.05680244389208048972e+01) (26, -3.45577523916570727991e+00) (27, 2.59208451216368429559e-01) (28, 2.91880193037394597422e-01) (29, 1.70670097522475056051e-01) (30, 1.94283480203431158095e+00) (31, 2.01490661508124402346e+00) (32, 3.05850305547923007055e+00) (33, 8.68234828675412351195e-01) (34, 2.71258154479164070860e-01) (35, 3.54864140536250982638e-01) (36, 3.73356280087258629585e-01) (37, 4.45309975612670327916e-01) (38, 4.97448728830937214607e-01) (39, 1.03282953253163917173e-01) (40, 7.26176131685616343958e-01) (41, -1.56427257038801381661e+00) (42, 4.03209323363159566345e-01) (43, 3.83883446564043329108e-01) (44, 8.44598358688116168658e-01) (45, 3.67874938987907185162e-01) (46, 7.16750261434462476728e+00) (47, 3.56684502313487084013e-01) (48, 7.97643690059209320431e-01) (49, 4.04866280184618398952e-01) (50, 4.23767770997052428683e-01) (51, 3.89923167115526492221e-01) (52, 2.96299130707843139110e-01) (53, 3.11462348630694607632e-01) (54, -4.74728602779354580399e-01) (55, 1.62169293493032246056e-01) (56, 3.16831445840462466723e-01) (57, 3.70094593445264907761e-01) (58, 3.87130485706649152267e-01) (59, 7.09285488236195527101e-01) (60, 3.28297613763022022582e+00) (61, 1.59260009083226261595e+00) (62, 1.10677675172857026276e+00) (63, 1.16617671295120306496e+00) (64, 9.18263442685588593406e+00) (65, 6.25271169406073190622e-01) (66, 3.26595243525705070109e-01) (67, -1.95957599051569686388e+00) (68, -2.62442905145374849596e+00) (69, -2.64760867523122245260e+00) (70, -4.37310948767912544000e-01) (71, -9.10716421758385408225e-01) (72, 3.45404653579207965297e-01) (73, 4.68142636122720112724e-01) (74, 5.09857754610433255849e-01) (75, 3.78823826404455221706e-01) (76, 1.35662111660449924422e+00) (77, 4.08299525234716487176e+00) (78, 8.54834021964776535896e-01) (79, 1.41563900281169496864e+00) (80, 1.02853791301516661605e+00) (81, 5.46764593135495857723e-01) (82, 4.68144718360117978451e-02) (83, 4.74973372784127045865e-01) (84, 3.49699686681417820644e-01) (85, -1.59442752045697799801e+00) (86, -6.54575508455240984151e-02) (87, 3.91721845581758099097e-01) (88, 2.86217085838850138213e-01) (89, 6.89035688511123289857e-01) (90, 4.59172074539608787713e-01) (91, 3.61487101051615911107e-01) (92, 5.17339991685829669876e-01) (93, 1.03021070744262299712e+00) (94, 3.41240393794373986225e-01) (95, 4.56766324963393921532e-01) (96, 1.65187254234841685019e+00) (97, 1.58132220911966903110e+00) (98, 4.53569564093694033158e-01) (99, 6.85621280200350069478e-01) (100, 5.07396808596323523055e-01) (101, 1.77567898319469147372e-01) (102, 4.42697695370207089383e-01) (103, 3.33563553881467589335e+00) (104, 4.03527533893007772647e-01) (105, 1.06868180919829969255e+00) (106, 7.91649386691848477859e-01) (107, 3.91681210010615843409e-01) (108, 4.41558372608844285079e-01) (109, 5.22626821469055591329e-01) (110, 7.29120291005717846566e-01) (111, 6.30625148993317563573e-01) (112, 3.95524592193868773649e+00) (113, 7.84036547886487245052e-01) (114, 9.50445267558186812629e-01) (115, 6.30889797794364159955e-01) (116, 5.54985404367168033701e-01) (117, 1.35238762923572064523e+00) (118, -3.63388677303123674989e+00) (119, 9.53216222659973633213e-01) (120, 9.85932736149064514741e-01) (121, 5.26108958991706288089e-01) (122, 3.93675053978861322346e-01) (123, 3.99941457418301504756e-01) (124, 4.72078395598146904888e-01) (125, 8.78878777777271746885e-01) (126, -1.20188992264486627093e+00) (127, 1.21592680548431242293e+00) (128, 1.16155363635608210870e+00) (129, 1.28051008661187970539e+00) (130, 6.17780129293912572130e-01) (131, 8.94017554663855684716e-01) (132, 6.22044461179795837857e-01) (133, 1.37620805734489226602e+00) (134, 1.60204022982211857773e+00) (135, 4.96260216992220726251e-01) (136, 4.70397173553249836608e-01) (137, 5.95849153215253668492e-01) (138, 3.97283565692008067138e-01) (139, 5.89947324947603157774e-01) (140, 5.88296495122867080241e-01) (141, 1.62649256668115937963e+00) (142, 1.14506524566722034386e+00) (143, 1.12767563921119218229e+00) (144, 1.03389286055292228816e+00) (145, 1.13314851645241199130e+00) (146, 1.72634714428042435053e+00) (147, 4.80475166376495288478e-01) (148, 4.95511798870804820449e-01) (149, 4.36491451596293267290e-01) (150, 3.10603548860249156771e-01) (151, 3.28964892282959830982e-01) (152, -3.27678500037535624934e-01) (153, 3.04873901734534269448e-01) (154, 1.46349529656255539223e+00) (155, 8.06253957156749190283e-01) (156, 1.59315816792439193250e+01) (157, 5.89035595668713884976e-01) (158, 5.62864067755459385189e-01) (159, 4.63798483426253127515e-01) (160, 6.92666182940608332608e-01) (161, 7.23247315015516201164e-01) (162, 4.87587412885000626162e-01) (163, 6.13005315822180762986e-01) (164, 5.32025255362337690102e-01) (165, 3.89129228838957341718e-01) (166, -7.41569247948131726744e-02) (167, -4.53324972459942354686e-01) (168, 4.11566645856426160943e-01) (169, 1.39182861015958070361e+00) (170, 1.42384643238965580281e+00) (171, 1.74197679747896749802e+00) (172, 2.11471597858225512923e+00) (173, 7.52128135912708106758e-01) (174, 9.07989643186652206630e-01) (175, 1.62989760577321174395e+00) (176, 3.92450164279579072346e-01) (177, 4.26996792300266048148e-01) (178, 5.21241307817316146256e-01) (179, 5.33610165145146253529e-01) (180, 4.30680501407095794875e-01) (181, 7.64295830278005294822e-01) (182, -3.45161187786565237801e+00) (183, 7.82847761594055335799e-01) (184, 4.79085817160952720517e-01) (185, 7.62450291083386910707e-01) (186, 9.35186676814842465788e-01) (187, 4.35155096250213269116e+00) (188, 2.04309056810750266919e+00) (189, 8.07011347875627449433e-01) (190, 1.15042014400040581990e+00) (191, 3.34070434493511314589e-01) (192, 4.91060955095274209725e+00) (193, 5.10134488770066951702e-01) (194, 7.07689894189861390394e-01) (195, 9.97028665685318227219e-01) (196, 4.75106410974007409287e-01) (197, 4.94604836597310582036e-01) (198, -1.22856770561982048262e-01) (199, 2.16111524921771602781e-01) (200, 3.74219560963600483827e-01) (201, 6.06302970264742779882e-01) (202, 4.60838138989770107479e-01) (203, 7.38965622696280632908e-01) (204, 9.78945543948369523157e-01) (205, 1.09263734090230246743e+00) (206, 4.56012477269098936983e-01) (207, -4.06805525058181904896e-01) (208, 3.64555814660914052183e+02) (209, 8.37635841698048295711e+01) (210, 3.75378908085825599983e+01) (211, 5.38332062037764069728e-01) (212, 8.54987881797859838873e-02) (213, -1.87711232358558736955e-02) (214, 5.54459316013060754536e-01) (215, 1.55279737310622556468e-01) (216, 3.70516432506889481502e-01) (217, 1.57753794785941342527e-01) (218, 3.02189606889603168405e-01) (219, 5.05626645200841440264e-01) (220, 5.40966828150277079246e-01) (221, 1.14440680001079231332e+00) (222, 9.91168505227897900234e-02) (223, -4.49318479552086458284e+01) (224, 2.93986294529657465890e-01) (225, -1.35508853349391833465e-01) (226, -2.50070699372751059641e-01) (227, 1.06937893004149645049e-01) (228, -6.80176593003314255981e+00) (229, -7.14579348863352503685e-01) (230, -1.36174291601337742463e+01) (231, -2.56141695478037556555e+00) (232, -2.09611679772878423123e+00) (233, -5.16255305569431843793e+00) (234, -5.03672444282129760929e-01) (235, 5.80518749372806008857e-01) (236, 8.51867469784328257276e-01) (237, 8.67647109110111447450e-01) (238, 4.75078216492324345577e-01) (239, -8.82548230557404611574e-01) (240, -3.30247228205625131814e-01) (241, 4.96812447990315764201e-01) (242, 1.82752787772733460425e-01) (243, -2.73069028099997335168e-01) (244, -1.52826998604118831082e+01) (245, -5.59111214917467957974e-01) (246, -2.15951360008133708135e+00) (247, -1.79625232085745700772e+00) (248, -9.51734655614843205740e+00) (249, -5.68033591428798279033e-01) (250, -1.00700582270510624605e-01) (251, 7.28465985986102682048e-01) (252, 9.88229240985821655308e-01) (253, 3.38259310275009550395e-01) (254, 4.49278268815464532082e+00) (255, -5.59768018516091991899e+00) (256, 5.16777171385232270140e-01) (0, -3.26865657192676906106e+00) (1, 2.33551159088683485399e-01) (2, -4.12266169410790750405e-01) (3, -1.33356640398666598246e-01) (4, 1.16713793737727070110e-01) (5, 1.04946379676629356070e-01) (6, -3.20877353084823013774e-02) (7, 8.77808324912456861000e-02) (8, 1.62873592196624811246e-01) (9, 1.53382632114421407765e-01) (10, -1.83324227264109573809e-01) (11, 2.12689286190573506596e-01) (12, 2.40592933138371684043e-01) (13, 7.70180424792664269917e-02) (14, 1.23145892705145254542e-01) (15, 2.32996620336398146955e-01) (16, 5.53462645975060646419e-03) (17, -1.16830264726704968758e+00) (18, 1.51949116675567486023e-01) (19, -1.85527359446315626146e-01) (20, -2.90175243335189070315e-01) (21, -2.14620376759612901951e-01) (22, -1.64734393587973843021e-01) (23, 1.24150722751903003216e-01) (24, 1.16855059045583936639e-01) (25, -7.38308943960250263494e-02) (26, -4.74400886246864397777e-02) (27, -2.11320910047986809666e-01) (28, -3.36253207906524909099e-01) (29, 8.67752675659089478533e-02) (30, 3.10768393308900083005e-02) (31, 1.67075742617499023446e-01) (32, -3.47431904946045255755e-01) (33, -2.35401111968266019137e-01) (34, -1.94649971048349301750e-01) (35, -5.49318541680018368467e-01) (36, -6.23755040528013893208e-01) (37, -1.02451814938293403467e-01) (38, 2.37074645740863176879e-01) (39, 4.85687671909335177967e-02) (40, 7.82315032470578819446e-02) (41, 1.17876499451747149272e-01) (42, -4.15412925364323115662e-01) (43, -2.07647836924477774412e-01) (44, 7.79887482921376717915e-02) (45, 6.61458018431695105033e-02) (46, 2.59508618628038700837e-01) (47, 3.38024778039332063351e-01) (48, -6.18550297608276178352e-01) (49, -5.89706726642888812151e-01) (50, -6.34932129735623407285e-01) (51, -6.15308245693966027190e-01) (52, 2.31695495704265425063e-01) (53, 2.52624809105655379060e-01) (54, -1.58809705086027141974e+00) (55, -5.43947319488317870828e-01) (56, 9.08184441587255864015e-02) (57, -3.16981057922127162918e-01) (58, 3.45541461359971879830e-01) (59, 1.93324050588519424920e-01) (60, 1.44348637172086929903e-01) (61, 1.86725345477943310835e-01) (62, -5.76303343807918588837e-01) (63, -6.22156189776622903231e-01) (64, -6.69922163478594567820e-01) (65, -6.27299993415458168045e-01) (66, -4.65659885702017606324e-01) (67, 2.76628492796905600670e-01) (68, 2.86200434884509080646e-01) (69, 7.71793501183768437812e-02) (70, 1.24992810846450350115e-01) (71, 1.97256101052465881995e-01) (72, 2.51843259365185506704e-02) (73, 3.47934687906028328186e-01) (74, 3.59795618770378911044e-01) (75, 1.77240596684469731148e-01) (76, 2.54728168885238137609e-01) (77, 3.00538590062708110828e-01) (78, -6.59672436610553081238e-01) (79, -6.72533601784115586675e-01) (80, -6.87574769140170349857e-01) (81, -6.82634402271757312342e-01) (82, 3.37792307080159004418e-01) (83, 1.57705765695143163008e-01) (84, 1.85050785412440188527e-01) (85, -1.24412020027903955088e-01) (86, 1.36936281192951841978e-01) (87, -3.47014351721630573411e-02) (88, -4.15328174671989805433e-02) (89, 4.39302025506633844754e-02) (90, -5.53148330546885183545e-02) (91, 7.82386343947050894032e-02) (92, 3.20111186464970054466e-01) (93, 4.26255027129207153536e-01) (94, -6.21950382107059773773e-01) (95, -1.44619858713134763484e-01) (96, -6.56632172355960608279e-01) (97, -7.53695976540190604176e-01) (98, 1.39124817991800209249e-01) (99, 9.03614084888348101376e-02) (100, -1.76645256033547796981e-02) (101, 9.06787715639428837378e-02) (102, -1.69221162306242844942e-01) (103, 4.27874710445844963491e-02) (104, -4.76684903771110793369e-02) (105, -1.67524023204085187322e-01) (106, 2.16109641595504442524e-01) (107, 1.87848691287612890033e-01) (108, 2.87576269738350265293e-01) (109, 3.90852433849813940547e-01) (110, -6.59246987056320010723e-01) (111, -5.29715000670735181032e-01) (112, -1.49635382716264281333e-01) (113, 2.61354944006491396458e-01) (114, 3.70035363851795640056e-01) (115, 2.22688564339320854701e-01) (116, -4.44433910677297483449e-01) (117, 2.33752178848796593469e-01) (118, 1.25397582698080295449e-01) (119, -3.23785150031537238835e-02) (120, -4.54681001796899617040e-02) (121, -3.47986051431386611554e-01) (122, -3.91733268862669181676e-01) (123, 1.57236266530905888228e-01) (124, 2.45755214584248177223e-01) (125, 2.22991453678875906075e-01) (126, -8.97957000224739010363e-01) (127, -6.91763930246937941426e-01) (128, 2.30713470391946035010e-01) (129, 4.52610533650139312822e-01) (130, 2.79662933488649290137e-01) (131, 3.40818972973684131134e-01) (132, 2.16194515108952600713e-01) (133, 1.90524635332331770954e-01) (134, 2.25199873911647779900e-01) (135, 2.81414414996723372120e-01) (136, 2.51667878655705667956e-01) (137, 1.77896873917775921736e-01) (138, 2.31469975676732775405e-01) (139, 2.35598801245339745103e-01) (140, 2.30237833777485884079e-01) (141, 2.62272059982558702895e-01) (142, -5.76139660590620161784e-01) (143, -6.23464653139947144744e-01) (144, 3.02668022465239161534e-01) (145, 3.67868524467299395919e-01) (146, 1.61042125918787221162e-01) (147, -1.20421550627769435859e-01) (148, 1.53044215205653255651e-01) (149, 2.82320769412022498646e-01) (150, 2.50943924909726279182e-01) (151, 2.22026348458820660392e-01) (152, 2.44850355407729397550e-01) (153, 3.88146644108095573156e-01) (154, 3.33294495886202246648e-01) (155, 3.96152476692113286738e-01) (156, 1.38398923729830064522e-01) (157, 2.62588204852916506926e-01) (158, 2.01592610737918426222e-01) (159, 7.27800191958263842373e-02) (160, 3.11063564923515001315e-01) (161, 3.32359502060848077676e-01) (162, -2.72874046091205080256e-01) (163, 1.44510237609893649191e-01) (164, 1.19558561187391595992e-01) (165, 2.20935365924911558677e-01) (166, 2.28135082756149243366e-01) (167, 2.37399786424091263637e-01) (168, 1.99828055759445594175e-01) (169, 3.07867726666658625412e-01) (170, 1.78844896551958759678e-01) (171, 3.85022632873268932929e-01) (172, 2.56493748198834303764e-01) (173, 3.77806050722254649354e-01) (174, 2.66898791998481932364e-01) (175, 1.62597781450007167203e-01) (176, 2.67706869955742776668e-01) (177, 4.37084254221470236423e-01) (178, 3.17008748432568709941e-01) (179, -5.21353925220307407029e-02) (180, 1.02270150979924520640e-01) (181, 3.28229134933235078275e-01) (182, 2.49759404330757051049e-01) (183, 2.50248971217153004520e-01) (184, 1.59331474790778554462e-01) (185, 5.25098128156645874154e-02) (186, 3.33768296558443755551e-01) (187, 2.83724565461872746397e-01) (188, 2.67047964621745514968e-01) (189, 3.64491850441824360995e-01) (190, 2.22824294872082495633e-01) (191, 2.71072767349454957220e-01) (192, 3.31133420560757563145e-01) (193, 4.23155831383236924470e-01) (194, 2.44823456491683272285e-01) (195, 1.95191175503118263812e-01) (196, -6.89326196553174286308e-01) (197, 1.83064839343049234888e-01) (198, 1.37657976497047557229e-01) (199, 1.08961240430001812807e-01) (200, -1.76989144893575922612e-02) (201, 2.59962689713690964233e-01) (202, 2.99721594838818050643e-01) (203, 3.97073405188825279133e-01) (204, 4.66217294368362844548e-01) (205, 3.96900495384569174107e-01) (206, 7.28144097314505772678e-03) (207, -3.63433068839685569085e-01) (208, 3.25859646658684054543e-01) (209, 3.35648796187053011231e-01) (210, 2.86833129321765356590e-01) (211, 2.73611013147981307903e-01) (212, 3.43857910828119894830e-01) (213, 1.65101816772597109750e-01) (214, 1.71504711331496723092e-01) (215, 2.43049788655276877147e-01) (216, 1.22547338892497179041e-01) (217, 2.80889530274073540017e-01) (218, 3.94850052879685553542e-01) (219, 1.83094035046396402810e-01) (220, 2.35577385746393808130e-01) (221, 2.70299099715834434399e-01) (222, 8.76845871785420921674e-02) (223, 2.38484641070768527138e-01) (224, 1.00004158758941863461e-01) (225, 3.49983566777556320826e-01) (226, 2.99474197294909816325e-01) (227, 2.09390887924307877999e-01) (228, 1.39397788965325807042e-02) (229, 2.75050291633282817383e-01) (230, 3.49573269477947645711e-01) (231, 3.50227777071947632415e-01) (232, 3.10457950137838167848e-01) (233, 2.27157186135711897101e-01) (234, 2.13859438480170804819e-01) (235, 1.96583886613576064306e-01) (236, 5.08431394056631652534e-02) (237, 1.51576273571410957697e-01) (238, -2.32973542090565155505e+00) (239, 2.09485721550999842711e-01) (240, -5.04874692000749428211e-02) (241, -1.94737104005921840555e-01) (242, -2.86415897249914334910e-02) (243, 1.46052940374270440183e-01) (244, 1.32054156153528334805e-01) (245, 2.74814918477368996808e-01) (246, 6.59117214912140897409e-02) (247, 2.50652619372051466140e-01) (248, 3.48105314680089095170e-01) (249, 1.80836460564458179068e-01) (250, -2.17290888311214097639e-01) (251, 2.03379585380538602246e-01) (252, 2.82677145528186790635e-01) (253, 1.67432983960198678020e-01) (254, -2.52531021342497441484e-01) (255, 5.38446901585428738812e-02) (256, 2.43534339110785397198e-01) (0, -3.00679095166393683947e-01) (1, -7.32316919690828849188e-02) (2, -6.97581194639772944610e-02) (3, -1.57685004473299070216e-02) (4, -9.84404828046499397187e-02) (5, 5.76478419805521447028e-02) (6, 5.55824335293944038483e-02) (7, -4.51496435525526179644e-02) (8, -7.13187384444590455335e-02) (9, 3.99026946300869087003e-02) (10, -4.40185425083972070581e-02) (11, -1.38079546901163446870e-01) (12, -1.38033287510811730758e-01) (13, -4.25741657985170551814e-01) (14, -8.62175618005505350894e-01) (15, -1.17036451085820281115e+00) (16, -1.36925548677907377160e-01) (17, -1.70557489692167163486e-01) (18, 8.35494212566324258307e-03) (19, -6.53394355916521868410e-02) (20, -1.04108247218959448777e-01) (21, -6.23730712410158899539e-02) (22, 3.29366444952404122115e-02) (23, -6.50952439349635897381e-02) (24, -3.72429689635487490285e-02) (25, -1.77566287981616548197e-02) (26, -6.42169940099492020380e-01) (27, -1.29729502934732926489e-01) (28, -6.50646703795631359268e-02) (29, -7.35605227744483558538e-02) (30, -1.52253491024596288028e-01) (31, 3.72987114546859191422e-02) (32, -9.75078420702159276434e-02) (33, -2.46870093836514398200e-02) (34, 1.33947013503094514153e-01) (35, 1.17101149776945648306e-01) (36, 1.10685627200143008042e-01) (37, 9.34296611918996183777e-02) (38, -8.59832036071960376100e-02) (39, -3.13484453046221842043e-02) (40, -1.56060789685721956754e-01) (41, -2.04930984744118929730e-02) (42, -1.40081251012689506075e-01) (43, 6.75359801353427480902e-03) (44, 3.55547592164480522059e-02) (45, -3.90187682891053266854e-01) (46, -1.57791306633128264325e-01) (47, 3.90483854151788337128e-02) (48, -3.22749805039323350853e-02) (49, 5.74739622853440365602e-02) (50, 4.16937785565036703184e-02) (51, -3.00548586932931523219e-02) (52, -2.37912725330935784229e-02) (53, -1.62915678184401280237e-01) (54, -5.08092417104257509930e-02) (55, -4.13499138673050839476e-02) (56, 6.26602899002677571350e-02) (57, 6.14814890139789016477e-02) (58, 2.47708439147492024551e-03) (59, -4.89994007436816286782e-03) (60, 2.68737395723431631012e-02) (61, -9.17382227844440456543e-02) (62, 7.98459552142354311854e-02) (63, -1.83274093581554178845e-02) (64, 1.87402533253597702867e+00) (65, -1.46063550489106946245e-02) (66, -2.66284705424103297633e-02) (67, 1.72676755657691777257e-02) (68, -7.10494687382665079944e-02) (69, -8.01132317536242255507e-02) (70, -4.80458629375356827129e-02) (71, 3.39763731616472275388e-02) (72, 1.02750956938545551234e-01) (73, -1.45476892049305368826e-02) (74, 3.29607545407931759596e-02) (75, -4.50340851203189299068e-02) (76, -3.84851091261392330711e-01) (77, -9.32514750684845378226e-02) (78, 6.24213155752435036594e-02) (79, 1.51319763154618702750e-01) (80, 1.46487257194995085241e-01) (81, 6.07991075919351031676e-02) (82, 3.79659978154779018111e-02) (83, 2.94954686701398398341e-02) (84, 3.87468848409403335276e-03) (85, -4.90093834783790482934e-02) (86, -7.25125937475480791816e-02) (87, -1.09173065603331578832e-01) (88, 4.45472796620696095959e-02) (89, 3.10001191507555708127e-02) (90, -1.23303987910724499599e-01) (91, -1.59450416516394399835e+00) (92, -1.21001552816497659482e-01) (93, 4.47723260045040580279e-03) (94, 7.42027002285981646112e-02) (95, 9.24142069352119288617e-01) (96, -2.57407305689726258191e-02) (97, 4.52470648272373029974e-02) (98, -1.05591535989472865009e-01) (99, 1.02664648950996986732e-01) (100, -9.41111160084241032964e-02) (101, -3.11046750166338141497e-02) (102, 4.88676488521699661782e-02) (103, 1.89680006468044753953e-01) (104, 2.72711298524311758495e-02) (105, 2.57159265527460885459e-02) (106, -1.60445599616237305485e-01) (107, -1.28011032935838209301e-01) (108, 7.26780126819350918987e-02) (109, 4.80204701921639887097e-02) (110, 2.33131950958477773828e-01) (111, 9.37331284512809892462e-01) (112, 5.35812563496610785863e-02) (113, 5.80020456343169829583e-02) (114, 6.73872092143512624318e-01) (115, 1.15804409855957385345e-01) (116, -3.59493010648908387084e-02) (117, -1.05445088058537153608e-01) (118, -7.11935917237119519907e-02) (119, -1.94359614861884244519e-01) (120, 2.87672670754989638631e-02) (121, -7.36879094328637823663e-02) (122, -2.88879900026858871254e-01) (123, -1.22776496400124321418e-01) (124, -3.11141506183938154617e-01) (125, 3.84110184249493863406e-02) (126, -1.57860538935892108503e-02) (127, 3.55978991811307154958e-01) (128, -5.85940451931963729448e-02) (129, -4.69843357333595418313e-02) (130, 1.99553421542708248060e-01) (131, 5.41026674278312857957e-01) (132, 1.66354749582562744248e-01) (133, 6.99983154302565163674e-02) (134, 3.15831857809094410094e-02) (135, -1.22741580588677137720e-01) (136, -4.93218348471423859158e-02) (137, 5.18102047975574908634e-02) (138, 5.43960296839185383777e-02) (139, -4.37004508616201242654e-02) (140, 2.74344172908153440330e-03) (141, 1.49414009845760448192e-01) (142, 1.37707582297885017253e-01) (143, -3.50964314897718801523e-02) (144, -1.00268456093805247153e-01) (145, 7.87835997390962106124e-03) (146, -1.22005508561390349498e-01) (147, -1.10144911371879899997e-01) (148, -1.17492739688946884469e-01) (149, -1.33064719338931769510e-01) (150, -1.20171578425836644843e-01) (151, -1.47732512298446361232e-01) (152, -2.58970794788112683438e-02) (153, -9.84506016083904061942e-02) (154, -5.36417141573953190625e-02) (155, -2.24975200133485566528e-03) (156, 1.30803786569276166152e-02) (157, 2.76289482225622745615e-02) (158, -1.92150438087501401752e-01) (159, -6.20802821033668780770e-02) (160, -5.89064368729557558124e-02) (161, -7.71632575151198485397e-02) (162, -3.82061020961343533742e-01) (163, -1.30606546326068362340e+00) (164, -2.35419142054945407239e-01) (165, 6.30593880806683826368e-02) (166, -2.09299891534594800779e-01) (167, -8.67280606995538272397e-02) (168, -3.83839865174861252783e-02) (169, 2.08679040143787686290e-02) (170, -7.75842650932219018989e-02) (171, 1.39238061224267767324e-01) (172, 5.02098245483583796589e-02) (173, -1.19440406770692356120e-01) (174, -1.02015918315916720438e-01) (175, 3.16995331089678089587e-02) (176, 1.87379657258515658347e-01) (177, -1.38964143991860383798e-01) (178, -6.08097548197353079957e-02) (179, -1.20618671253781686858e-01) (180, -6.99591532363009749318e-01) (181, 1.11856093279979040139e-02) (182, -4.63339270444008480276e-02) (183, 7.06423937632467968673e-02) (184, 1.04588949902178665607e-01) (185, -3.34308554756919187878e-02) (186, 8.21875873204039042452e-02) (187, 7.85030222975863917201e-02) (188, 1.48758011422685000602e-02) (189, -7.12759764280514619000e-03) (190, 5.70680980794905090558e-02) (191, 1.13914575454641495145e-01) (192, -8.14034960250618194744e-02) (193, -4.60538028157408130259e-02) (194, -8.14794756145948845250e-02) (195, -1.37018957298689514346e-01) (196, -1.17788130498110904520e-01) (197, -1.33450398510182116629e-01) (198, -3.26865969923543289721e-02) (199, 1.03101900518878294294e-02) (200, 8.31813624909612941982e-02) (201, -2.71736609694725496367e-02) (202, -9.84374249466846151790e-04) (203, 3.98477285073093670520e-02) (204, 1.75771701523102258369e-01) (205, 2.04180158947836559724e-01) (206, 5.13320218610738288056e-02) (207, -9.24773510781222024546e-02) (208, 2.38186400218759780634e-01) (209, 2.49878316346392431724e-01) (210, -5.27298155518296021715e-02) (211, -1.46758668876604797537e-01) (212, -4.49011635195033231849e-02) (213, 4.09689196704425551143e-02) (214, 3.74380394844719480152e-02) (215, 3.86071619668826165883e-02) (216, -7.57433936502976412619e-02) (217, -5.64050522339779730752e-02) (218, 3.75260746982602200195e-02) (219, 1.36518713993593922285e-02) (220, 4.34215607135839620767e-01) (221, 8.28880156015479596654e-02) (222, -9.99669555735612641589e-02) (223, -1.19201324080087531221e-01) (224, -1.61481406565961715938e-02) (225, -4.16795673356052456815e-02) (226, 7.70331758341443427474e-03) (227, -3.79595415553456204741e-03) (228, -5.04346350987153399514e-02) (229, -1.54108393551220690387e-01) (230, -3.32482814631044759635e-02) (231, -9.45362074989567272021e-03) (232, -9.76519374337129347774e-02) (233, 2.74989118664239334811e-02) (234, -1.00968596290753706568e-01) (235, -1.03687124212867062822e-01) (236, 2.32289981129496309054e-01) (237, 1.18961412729209375927e-01) (238, -7.21663709286569227119e-03) (239, 2.15239926113249373241e-02) (240, -4.47357807935899576268e-01) (241, -6.57602332631457286993e-01) (242, -1.77533977818986471453e-01) (243, -1.86099957943123062165e-01) (244, -1.80340179352099228005e-01) (245, 4.59458775826715091171e-04) (246, 1.13043323031612949481e-02) (247, -1.44934335809797670835e-01) (248, -1.87244878315474039265e-01) (249, -4.01494557553884537371e-02) (250, -8.53830141983484558477e-02) (251, 3.31995968294585108715e-01) (252, 3.54602652894320580224e-01) (253, 4.75209444306509340428e-02) (254, -1.36186815275679079518e-01) (255, -2.81532001672784551634e-04) (256, -7.77009089910253164524e-02) (0, 6.86649159105089168520e-01) (1, 6.25941791676311365400e-01) (2, 4.88793762256351460582e-01) (3, 5.17554856229194504280e-01) (4, 4.62531250511428293493e-01) (5, 4.92864114975547107367e-01) (6, 4.65813297528297032279e-01) (7, 4.00213006775548163496e-01) (8, 5.27794011919000993771e-01) (9, 4.02799455906746206590e-01) (10, 4.85994701444249777023e-01) (11, 3.17168944345054049094e-01) (12, 1.08635685823519206883e-01) (13, 3.38910488992489100646e-01) (14, -6.35405134161022111527e+00) (15, 2.53313989933445726788e-01) (16, 6.42613569248205673823e-01) (17, 6.48111707274702242287e-01) (18, 5.59071367663562135419e-01) (19, 5.15457458592789685703e-01) (20, 5.19256412255903576636e-01) (21, 3.91655813705779953793e-01) (22, 5.17165610370728501266e-01) (23, 4.16676258653024600420e-01) (24, 3.87777862937419226519e-01) (25, 3.77937253814929041695e-01) (26, 3.58673067350965379951e-01) (27, 4.68419653831058546700e-01) (28, 5.94830699966851783600e-01) (29, 5.01010503700254239412e-01) (30, 